<?xml version="1.0" encoding="UTF-8" ?>
<PMML version="3.1">
 <Header copyright="Copyright IBM Corp. 2002, 2005 All Rights Reserved">
  <Application name="IBM DB2 Intelligent Miner" version="9.1"/>
  <Timestamp>2006-03-21 15:17:03</Timestamp>
  </Header>
 <MiningBuildTask>
  <Extension name="DM_ruleBldTask">&lt;?xml version="1.0" encoding="UTF-8" ?>
&lt;DataMining>&lt;MiningTask trainData="trainData">&lt;MiningData name="trainData" tableName="RASPL.INPUT_044">&lt;Column alias="RECORDID" name="RECORDID" sqlType="INTEGER"/>&lt;Column alias="id" name="id" sqlType="SMALLINT"/>&lt;Column alias="category" name="category" sqlType="CHAR"/>&lt;/MiningData>&lt;MiningSettings>&lt;LogicalDataSpec>&lt;MiningField name="RECORDID" type="numerical"/>&lt;MiningField name="id" type="numerical"/>&lt;MiningField name="category" type="categorical"/>&lt;/LogicalDataSpec>&lt;RuleSettings>&lt;RuleFilter>&lt;RangeConstraint upperBound="2.1" restrictionCriterion="nbOfItems"/>&lt;/RuleFilter>&lt;/RuleSettings>&lt;FieldUsageEntry field="RECORDID" usageType="sequence"/>&lt;FieldUsageEntry field="id" usageType="group"/>&lt;/MiningSettings>&lt;TaskControl errorTable="IDMMX.ERRORTABLE" progressTable="IDMMX.PROGRESSTABLE"/>&lt;/MiningTask>&lt;/DataMining></Extension>
  </MiningBuildTask>
 <DataDictionary numberOfFields="3">
  <DataField name="RECORDID" displayName="RECORDID" optype="continuous"/>
  <DataField name="id" displayName="id" optype="continuous"/>
  <DataField name="category" displayName="category" optype="categorical"/>
  </DataDictionary>
 <SequenceModel modelName="dmg.Sequences Rule Model" functionName="sequences" algorithmName="SIDFAS" numberOfTransactions="17184" avgNumberOfItemsPerTransaction="1.35405027932961" numberOfTransactionGroups="247" maxNumberOfTAsPerTAGroup="78" avgNumberOfTAsPerTAGroup="69.5708502024292" x-quality="1">
  <MiningSchema>
   <MiningField name="RECORDID" usageType="group"/>
   <MiningField name="id" usageType="order"/>
   <MiningField name="category"/>
   </MiningSchema>
  <Constraints minimumNumberOfItems="2" maximumNumberOfItems="2" maximumNumberOfAntecedentItems="1" maximumNumberOfConsequentItems="1"/>
  <Item id="1" value="msn-sports"/>
  <Item id="2" value="misc"/>
  <Item id="3" value="sports"/>
  <Item id="4" value="summary"/>
  <Item id="5" value="bbs"/>
  <Item id="6" value="local"/>
  <Item id="7" value="tech"/>
  <Item id="8" value="business"/>
  <Item id="9" value="travel"/>
  <Item id="10" value="living"/>
  <Item id="11" value="weather"/>
  <Item id="12" value="msn-news"/>
  <Item id="13" value="news"/>
  <Item id="14" value="opinion"/>
  <Item id="15" value="frontpage"/>
  <Item id="16" value="health"/>
  <Item id="17" value="on-air"/>
  <Itemset id="1" support="0.979757085020243" numberOfItems="1">
   <ItemRef itemRef="1"/>
   </Itemset>
  <Itemset id="2" support="0.991902834008097" numberOfItems="1">
   <ItemRef itemRef="2"/>
   </Itemset>
  <Itemset id="3" support="1" numberOfItems="1">
   <ItemRef itemRef="3"/>
   </Itemset>
  <Itemset id="4" support="0.870445344129555" numberOfItems="1">
   <ItemRef itemRef="4"/>
   </Itemset>
  <Itemset id="5" support="0.263157894736842" numberOfItems="1">
   <ItemRef itemRef="5"/>
   </Itemset>
  <Itemset id="6" support="1" numberOfItems="1">
   <ItemRef itemRef="6"/>
   </Itemset>
  <Itemset id="7" support="1" numberOfItems="1">
   <ItemRef itemRef="7"/>
   </Itemset>
  <Itemset id="8" support="1" numberOfItems="1">
   <ItemRef itemRef="8"/>
   </Itemset>
  <Itemset id="9" support="0.473684210526316" numberOfItems="1">
   <ItemRef itemRef="9"/>
   </Itemset>
  <Itemset id="10" support="0.97165991902834" numberOfItems="1">
   <ItemRef itemRef="10"/>
   </Itemset>
  <Itemset id="11" support="0.995951417004049" numberOfItems="1">
   <ItemRef itemRef="11"/>
   </Itemset>
  <Itemset id="12" support="0.995951417004049" numberOfItems="1">
   <ItemRef itemRef="12"/>
   </Itemset>
  <Itemset id="13" support="1" numberOfItems="1">
   <ItemRef itemRef="13"/>
   </Itemset>
  <Itemset id="14" support="0.769230769230769" numberOfItems="1">
   <ItemRef itemRef="14"/>
   </Itemset>
  <Itemset id="15" support="1" numberOfItems="1">
   <ItemRef itemRef="15"/>
   </Itemset>
  <Itemset id="16" support="0.967611336032389" numberOfItems="1">
   <ItemRef itemRef="16"/>
   </Itemset>
  <Itemset id="17" support="1" numberOfItems="1">
   <ItemRef itemRef="17"/>
   </Itemset>
  
<!-- main sequences, carrying support, confidence and lift information -->
<Sequence id="1" numberOfSets="2" occurrence="247" support="1">
   <SetReference setId="3"/>
   <Delimiter delimiter="acrossTimeWindows" gap="unknown"/>
   <Time min="0.99812" max="39.99995" mean="7.87454" standardDeviation="7.47935"/>
   <SetReference setId="15"/>
   <Time min="0.99812" max="39.99995" mean="7.87454" standardDeviation="7.47935"/>
   </Sequence>
  <Sequence id="2" numberOfSets="2" occurrence="247" support="1">
   <SetReference setId="6"/>
   <Delimiter delimiter="acrossTimeWindows" gap="unknown"/>
   <Time min="0.99812" max="42.99887" mean="7.39276" standardDeviation="7.14203"/>
   <SetReference setId="15"/>
   <Time min="0.99812" max="42.99887" mean="7.39276" standardDeviation="7.14203"/>
   </Sequence>
  <Sequence id="3" numberOfSets="2" occurrence="247" support="1">
   <SetReference setId="7"/>
   <Delimiter delimiter="acrossTimeWindows" gap="unknown"/>
   <Time min="0.99812" max="48.99898" mean="7.38878" standardDeviation="7.06947"/>
   <SetReference setId="15"/>
   <Time min="0.99812" max="48.99898" mean="7.38878" standardDeviation="7.06947"/>
   </Sequence>
  <Sequence id="4" numberOfSets="2" occurrence="247" support="1">
   <SetReference setId="7"/>
   <Delimiter delimiter="acrossTimeWindows" gap="unknown"/>
   <Time min="0.99812" max="55.99948" mean="12.30369" standardDeviation="11.66643"/>
   <SetReference setId="17"/>
   <Time min="0.99812" max="55.99948" mean="12.30369" standardDeviation="11.66643"/>
   </Sequence>
  <Sequence id="5" numberOfSets="2" occurrence="247" support="1">
   <SetReference setId="8"/>
   <Delimiter delimiter="acrossTimeWindows" gap="unknown"/>
   <Time min="0.99812" max="90.99973" mean="22.96765" standardDeviation="19.18836"/>
   <SetReference setId="8"/>
   <Time min="0.99812" max="90.99973" mean="22.96765" standardDeviation="19.18836"/>
   </Sequence>
  <Sequence id="6" numberOfSets="2" occurrence="247" support="1">
   <SetReference setId="8"/>
   <Delimiter delimiter="acrossTimeWindows" gap="unknown"/>
   <Time min="0.99812" max="90.99973" mean="15.14982" standardDeviation="13.5866"/>
   <SetReference setId="13"/>
   <Time min="0.99812" max="90.99973" mean="15.14982" standardDeviation="13.5866"/>
   </Sequence>
  <Sequence id="7" numberOfSets="2" occurrence="247" support="1">
   <SetReference setId="8"/>
   <Delimiter delimiter="acrossTimeWindows" gap="unknown"/>
   <Time min="0.99812" max="46.00006" mean="7.65179" standardDeviation="7.23246"/>
   <SetReference setId="15"/>
   <Time min="0.99812" max="46.00006" mean="7.65179" standardDeviation="7.23246"/>
   </Sequence>
  <Sequence id="8" numberOfSets="2" occurrence="247" support="1">
   <SetReference setId="8"/>
   <Delimiter delimiter="acrossTimeWindows" gap="unknown"/>
   <Time min="0.99812" max="64.00038" mean="13.21051" standardDeviation="11.38019"/>
   <SetReference setId="17"/>
   <Time min="0.99812" max="64.00038" mean="13.21051" standardDeviation="11.38019"/>
   </Sequence>
  <Sequence id="9" numberOfSets="2" occurrence="247" support="1">
   <SetReference setId="13"/>
   <Delimiter delimiter="acrossTimeWindows" gap="unknown"/>
   <Time min="0.99812" max="140.9991" mean="24.35216" standardDeviation="22.02343"/>
   <SetReference setId="3"/>
   <Time min="0.99812" max="140.9991" mean="24.35216" standardDeviation="22.02343"/>
   </Sequence>
  <Sequence id="10" numberOfSets="2" occurrence="247" support="1">
   <SetReference setId="13"/>
   <Delimiter delimiter="acrossTimeWindows" gap="unknown"/>
   <Time min="0.99812" max="96.99983" mean="23.08495" standardDeviation="20.671"/>
   <SetReference setId="6"/>
   <Time min="0.99812" max="96.99983" mean="23.08495" standardDeviation="20.671"/>
   </Sequence>
  <Sequence id="11" numberOfSets="2" occurrence="247" support="1">
   <SetReference setId="13"/>
   <Delimiter delimiter="acrossTimeWindows" gap="unknown"/>
   <Time min="0.99812" max="115.00015" mean="22.02822" standardDeviation="20.37207"/>
   <SetReference setId="7"/>
   <Time min="0.99812" max="115.00015" mean="22.02822" standardDeviation="20.37207"/>
   </Sequence>
  <Sequence id="12" numberOfSets="2" occurrence="247" support="1">
   <SetReference setId="13"/>
   <Delimiter delimiter="acrossTimeWindows" gap="unknown"/>
   <Time min="0.99812" max="87.99854" mean="23.12948" standardDeviation="19.15443"/>
   <SetReference setId="8"/>
   <Time min="0.99812" max="87.99854" mean="23.12948" standardDeviation="19.15443"/>
   </Sequence>
  <Sequence id="13" numberOfSets="2" occurrence="247" support="1">
   <SetReference setId="13"/>
   <Delimiter delimiter="acrossTimeWindows" gap="unknown"/>
   <Time min="0.99812" max="64.00038" mean="14.77726" standardDeviation="11.61086"/>
   <SetReference setId="13"/>
   <Time min="0.99812" max="64.00038" mean="14.77726" standardDeviation="11.61086"/>
   </Sequence>
  <Sequence id="14" numberOfSets="2" occurrence="247" support="1">
   <SetReference setId="13"/>
   <Delimiter delimiter="acrossTimeWindows" gap="unknown"/>
   <Time min="0.99812" max="51.99789" mean="7.91091" standardDeviation="7.75693"/>
   <SetReference setId="15"/>
   <Time min="0.99812" max="51.99789" mean="7.91091" standardDeviation="7.75693"/>
   </Sequence>
  <Sequence id="15" numberOfSets="2" occurrence="247" support="1">
   <SetReference setId="13"/>
   <Delimiter delimiter="acrossTimeWindows" gap="unknown"/>
   <Time min="1.0004" max="64.00038" mean="13.67202" standardDeviation="11.7578"/>
   <SetReference setId="17"/>
   <Time min="1.0004" max="64.00038" mean="13.67202" standardDeviation="11.7578"/>
   </Sequence>
  <Sequence id="16" numberOfSets="2" occurrence="247" support="1">
   <SetReference setId="15"/>
   <Delimiter delimiter="acrossTimeWindows" gap="unknown"/>
   <Time min="0.99812" max="127.99849" mean="24.28335" standardDeviation="23.05448"/>
   <SetReference setId="3"/>
   <Time min="0.99812" max="127.99849" mean="24.28335" standardDeviation="23.05448"/>
   </Sequence>
  <Sequence id="17" numberOfSets="2" occurrence="247" support="1">
   <SetReference setId="15"/>
   <Delimiter delimiter="acrossTimeWindows" gap="unknown"/>
   <Time min="0.99812" max="118.99947" mean="22.01207" standardDeviation="20.90856"/>
   <SetReference setId="6"/>
   <Time min="0.99812" max="118.99947" mean="22.01207" standardDeviation="20.90856"/>
   </Sequence>
  <Sequence id="18" numberOfSets="2" occurrence="247" support="1">
   <SetReference setId="15"/>
   <Delimiter delimiter="acrossTimeWindows" gap="unknown"/>
   <Time min="0.99812" max="113.99976" mean="22.08493" standardDeviation="19.32263"/>
   <SetReference setId="7"/>
   <Time min="0.99812" max="113.99976" mean="22.08493" standardDeviation="19.32263"/>
   </Sequence>
  <Sequence id="19" numberOfSets="2" occurrence="247" support="1">
   <SetReference setId="15"/>
   <Delimiter delimiter="acrossTimeWindows" gap="unknown"/>
   <Time min="0.99812" max="102.99994" mean="23.579" standardDeviation="20.34017"/>
   <SetReference setId="8"/>
   <Time min="0.99812" max="102.99994" mean="23.579" standardDeviation="20.34017"/>
   </Sequence>
  <Sequence id="20" numberOfSets="2" occurrence="247" support="1">
   <SetReference setId="15"/>
   <Delimiter delimiter="acrossTimeWindows" gap="unknown"/>
   <Time min="0.99812" max="73.9998" mean="14.62755" standardDeviation="12.33954"/>
   <SetReference setId="13"/>
   <Time min="0.99812" max="73.9998" mean="14.62755" standardDeviation="12.33954"/>
   </Sequence>
  <Sequence id="21" numberOfSets="2" occurrence="247" support="1">
   <SetReference setId="15"/>
   <Delimiter delimiter="acrossTimeWindows" gap="unknown"/>
   <Time min="0.99812" max="39.99995" mean="7.8097" standardDeviation="6.5025"/>
   <SetReference setId="15"/>
   <Time min="0.99812" max="39.99995" mean="7.8097" standardDeviation="6.5025"/>
   </Sequence>
  <Sequence id="22" numberOfSets="2" occurrence="247" support="1">
   <SetReference setId="15"/>
   <Delimiter delimiter="acrossTimeWindows" gap="unknown"/>
   <Time min="0.99812" max="67.99969" mean="13.166" standardDeviation="11.64354"/>
   <SetReference setId="17"/>
   <Time min="0.99812" max="67.99969" mean="13.166" standardDeviation="11.64354"/>
   </Sequence>
  <Sequence id="23" numberOfSets="2" occurrence="247" support="1">
   <SetReference setId="17"/>
   <Delimiter delimiter="acrossTimeWindows" gap="unknown"/>
   <Time min="0.99812" max="129.99928" mean="22.47363" standardDeviation="21.72429"/>
   <SetReference setId="3"/>
   <Time min="0.99812" max="129.99928" mean="22.47363" standardDeviation="21.72429"/>
   </Sequence>
  <Sequence id="24" numberOfSets="2" occurrence="247" support="1">
   <SetReference setId="17"/>
   <Delimiter delimiter="acrossTimeWindows" gap="unknown"/>
   <Time min="0.99812" max="110.00044" mean="22.46146" standardDeviation="20.58702"/>
   <SetReference setId="7"/>
   <Time min="0.99812" max="110.00044" mean="22.46146" standardDeviation="20.58702"/>
   </Sequence>
  <Sequence id="25" numberOfSets="2" occurrence="247" support="1">
   <SetReference setId="17"/>
   <Delimiter delimiter="acrossTimeWindows" gap="unknown"/>
   <Time min="1.0004" max="99.00063" mean="23.50203" standardDeviation="19.75758"/>
   <SetReference setId="8"/>
   <Time min="1.0004" max="99.00063" mean="23.50203" standardDeviation="19.75758"/>
   </Sequence>
  <Sequence id="26" numberOfSets="2" occurrence="247" support="1">
   <SetReference setId="17"/>
   <Delimiter delimiter="acrossTimeWindows" gap="unknown"/>
   <Time min="0.99812" max="60.99919" mean="12.85421" standardDeviation="11.15159"/>
   <SetReference setId="13"/>
   <Time min="0.99812" max="60.99919" mean="12.85421" standardDeviation="11.15159"/>
   </Sequence>
  <Sequence id="27" numberOfSets="2" occurrence="247" support="1">
   <SetReference setId="17"/>
   <Delimiter delimiter="acrossTimeWindows" gap="unknown"/>
   <Time min="0.99812" max="41.99847" mean="7.34409" standardDeviation="7.01807"/>
   <SetReference setId="15"/>
   <Time min="0.99812" max="41.99847" mean="7.34409" standardDeviation="7.01807"/>
   </Sequence>
  <Sequence id="28" numberOfSets="2" occurrence="247" support="1">
   <SetReference setId="17"/>
   <Delimiter delimiter="acrossTimeWindows" gap="unknown"/>
   <Time min="0.99812" max="66.9993" mean="13.16185" standardDeviation="12.2655"/>
   <SetReference setId="17"/>
   <Time min="0.99812" max="66.9993" mean="13.16185" standardDeviation="12.2655"/>
   </Sequence>
  <Sequence id="29" numberOfSets="2" occurrence="246" support="0.99595">
   <SetReference setId="3"/>
   <Delimiter delimiter="acrossTimeWindows" gap="unknown"/>
   <Time min="0.99812" max="111.99896" mean="21.24793" standardDeviation="20.0324"/>
   <SetReference setId="6"/>
   <Time min="0.99812" max="111.99896" mean="21.24793" standardDeviation="20.0324"/>
   </Sequence>
  <Sequence id="30" numberOfSets="2" occurrence="246" support="0.99595">
   <SetReference setId="3"/>
   <Delimiter delimiter="acrossTimeWindows" gap="unknown"/>
   <Time min="0.99812" max="62.99998" mean="13.5488" standardDeviation="11.55273"/>
   <SetReference setId="13"/>
   <Time min="0.99812" max="62.99998" mean="13.5488" standardDeviation="11.55273"/>
   </Sequence>
  <Sequence id="31" numberOfSets="2" occurrence="246" support="0.99595">
   <SetReference setId="3"/>
   <Delimiter delimiter="acrossTimeWindows" gap="unknown"/>
   <Time min="0.99812" max="69.00009" mean="12.73168" standardDeviation="11.75069"/>
   <SetReference setId="17"/>
   <Time min="0.99812" max="69.00009" mean="12.73168" standardDeviation="11.75069"/>
   </Sequence>
  <Sequence id="32" numberOfSets="2" occurrence="246" support="0.99595">
   <SetReference setId="6"/>
   <Delimiter delimiter="acrossTimeWindows" gap="unknown"/>
   <Time min="0.99812" max="102.99994" mean="22.87806" standardDeviation="21.0535"/>
   <SetReference setId="6"/>
   <Time min="0.99812" max="102.99994" mean="22.87806" standardDeviation="21.0535"/>
   </Sequence>
  <Sequence id="33" numberOfSets="2" occurrence="246" support="0.99595">
   <SetReference setId="6"/>
   <Delimiter delimiter="acrossTimeWindows" gap="unknown"/>
   <Time min="0.99812" max="106.99925" mean="14.49594" standardDeviation="14.21459"/>
   <SetReference setId="13"/>
   <Time min="0.99812" max="106.99925" mean="14.49594" standardDeviation="14.21459"/>
   </Sequence>
  <Sequence id="34" numberOfSets="2" occurrence="246" support="0.99595">
   <SetReference setId="6"/>
   <Delimiter delimiter="acrossTimeWindows" gap="unknown"/>
   <Time min="0.99812" max="60.99919" mean="13.64631" standardDeviation="11.86885"/>
   <SetReference setId="17"/>
   <Time min="0.99812" max="60.99919" mean="13.64631" standardDeviation="11.86885"/>
   </Sequence>
  <Sequence id="35" numberOfSets="2" occurrence="246" support="0.99595">
   <SetReference setId="7"/>
   <Delimiter delimiter="acrossTimeWindows" gap="unknown"/>
   <Time min="0.99812" max="101.00142" mean="24.82936" standardDeviation="20.42483"/>
   <SetReference setId="8"/>
   <Time min="0.99812" max="101.00142" mean="24.82936" standardDeviation="20.42483"/>
   </Sequence>
  <Sequence id="36" numberOfSets="2" occurrence="246" support="0.99595">
   <SetReference setId="7"/>
   <Delimiter delimiter="acrossTimeWindows" gap="unknown"/>
   <Time min="0.99812" max="67.00157" mean="14.10164" standardDeviation="12.77605"/>
   <SetReference setId="13"/>
   <Time min="0.99812" max="67.00157" mean="14.10164" standardDeviation="12.77605"/>
   </Sequence>
  <Sequence id="37" numberOfSets="2" occurrence="246" support="0.99595">
   <SetReference setId="8"/>
   <Delimiter delimiter="acrossTimeWindows" gap="unknown"/>
   <Time min="0.99812" max="115.99828" mean="22.46742" standardDeviation="21.45338"/>
   <SetReference setId="3"/>
   <Time min="0.99812" max="115.99828" mean="22.46742" standardDeviation="21.45338"/>
   </Sequence>
  <Sequence id="38" numberOfSets="2" occurrence="246" support="0.99595">
   <SetReference setId="11"/>
   <Delimiter delimiter="acrossTimeWindows" gap="unknown"/>
   <Time min="0.99812" max="38.00143" mean="8.08546" standardDeviation="7.54209"/>
   <SetReference setId="15"/>
   <Time min="0.99812" max="38.00143" mean="8.08546" standardDeviation="7.54209"/>
   </Sequence>
  <Sequence id="39" numberOfSets="2" occurrence="246" support="0.99595">
   <SetReference setId="12"/>
   <Delimiter delimiter="acrossTimeWindows" gap="unknown"/>
   <Time min="1.0004" max="98.00023" mean="23.06511" standardDeviation="19.38844"/>
   <SetReference setId="8"/>
   <Time min="1.0004" max="98.00023" mean="23.06511" standardDeviation="19.38844"/>
   </Sequence>
  <Sequence id="40" numberOfSets="2" occurrence="246" support="0.99595">
   <SetReference setId="12"/>
   <Delimiter delimiter="acrossTimeWindows" gap="unknown"/>
   <Time min="0.99812" max="53.99869" mean="7.03663" standardDeviation="6.57125"/>
   <SetReference setId="15"/>
   <Time min="0.99812" max="53.99869" mean="7.03663" standardDeviation="6.57125"/>
   </Sequence>
  <Sequence id="41" numberOfSets="2" occurrence="246" support="0.99595">
   <SetReference setId="12"/>
   <Delimiter delimiter="acrossTimeWindows" gap="unknown"/>
   <Time min="0.99812" max="52.00017" mean="13.81707" standardDeviation="11.26668"/>
   <SetReference setId="17"/>
   <Time min="0.99812" max="52.00017" mean="13.81707" standardDeviation="11.26668"/>
   </Sequence>
  <Sequence id="42" numberOfSets="2" occurrence="246" support="0.99595">
   <SetReference setId="13"/>
   <Delimiter delimiter="acrossTimeWindows" gap="unknown"/>
   <Time min="1.0004" max="130.99968" mean="31.53244" standardDeviation="27.17459"/>
   <SetReference setId="11"/>
   <Time min="1.0004" max="130.99968" mean="31.53244" standardDeviation="27.17459"/>
   </Sequence>
  <Sequence id="43" numberOfSets="2" occurrence="246" support="0.99595">
   <SetReference setId="15"/>
   <Delimiter delimiter="acrossTimeWindows" gap="unknown"/>
   <Time min="0.99812" max="125.00185" mean="27.6382" standardDeviation="25.55779"/>
   <SetReference setId="11"/>
   <Time min="0.99812" max="125.00185" mean="27.6382" standardDeviation="25.55779"/>
   </Sequence>
  <Sequence id="44" numberOfSets="2" occurrence="246" support="0.99595">
   <SetReference setId="15"/>
   <Delimiter delimiter="acrossTimeWindows" gap="unknown"/>
   <Time min="0.99812" max="115.00015" mean="27.94703" standardDeviation="23.6642"/>
   <SetReference setId="12"/>
   <Time min="0.99812" max="115.00015" mean="27.94703" standardDeviation="23.6642"/>
   </Sequence>
  <Sequence id="45" numberOfSets="2" occurrence="246" support="0.99595">
   <SetReference setId="17"/>
   <Delimiter delimiter="acrossTimeWindows" gap="unknown"/>
   <Time min="0.99812" max="118.99947" mean="21.47146" standardDeviation="20.55348"/>
   <SetReference setId="6"/>
   <Time min="0.99812" max="118.99947" mean="21.47146" standardDeviation="20.55348"/>
   </Sequence>
  <Sequence id="46" numberOfSets="2" occurrence="246" support="0.99595">
   <SetReference setId="17"/>
   <Delimiter delimiter="acrossTimeWindows" gap="unknown"/>
   <Time min="0.99812" max="135.99939" mean="29.70724" standardDeviation="28.14325"/>
   <SetReference setId="11"/>
   <Time min="0.99812" max="135.99939" mean="29.70724" standardDeviation="28.14325"/>
   </Sequence>
  <Sequence id="47" numberOfSets="2" occurrence="246" support="0.99595">
   <SetReference setId="17"/>
   <Delimiter delimiter="acrossTimeWindows" gap="unknown"/>
   <Time min="0.99812" max="101.99954" mean="24.57308" standardDeviation="22.67976"/>
   <SetReference setId="12"/>
   <Time min="0.99812" max="101.99954" mean="24.57308" standardDeviation="22.67976"/>
   </Sequence>
  <Sequence id="48" numberOfSets="2" occurrence="245" support="0.9919">
   <SetReference setId="3"/>
   <Delimiter delimiter="acrossTimeWindows" gap="unknown"/>
   <Time min="0.99812" max="140.9991" mean="23.27349" standardDeviation="22.80024"/>
   <SetReference setId="3"/>
   <Time min="0.99812" max="140.9991" mean="23.27349" standardDeviation="22.80024"/>
   </Sequence>
  <Sequence id="49" numberOfSets="2" occurrence="245" support="0.9919">
   <SetReference setId="3"/>
   <Delimiter delimiter="acrossTimeWindows" gap="unknown"/>
   <Time min="0.99812" max="89.99933" mean="22.75914" standardDeviation="19.96522"/>
   <SetReference setId="7"/>
   <Time min="0.99812" max="89.99933" mean="22.75914" standardDeviation="19.96522"/>
   </Sequence>
  <Sequence id="50" numberOfSets="2" occurrence="245" support="0.9919">
   <SetReference setId="6"/>
   <Delimiter delimiter="acrossTimeWindows" gap="unknown"/>
   <Time min="0.99812" max="128.99889" mean="24.07345" standardDeviation="22.1043"/>
   <SetReference setId="3"/>
   <Time min="0.99812" max="128.99889" mean="24.07345" standardDeviation="22.1043"/>
   </Sequence>
  <Sequence id="51" numberOfSets="2" occurrence="245" support="0.9919">
   <SetReference setId="6"/>
   <Delimiter delimiter="acrossTimeWindows" gap="unknown"/>
   <Time min="0.99812" max="105.00073" mean="22.43272" standardDeviation="19.35486"/>
   <SetReference setId="8"/>
   <Time min="0.99812" max="105.00073" mean="22.43272" standardDeviation="19.35486"/>
   </Sequence>
  <Sequence id="52" numberOfSets="2" occurrence="245" support="0.9919">
   <SetReference setId="6"/>
   <Delimiter delimiter="acrossTimeWindows" gap="unknown"/>
   <Time min="0.99812" max="116.00055" mean="28.54695" standardDeviation="25.23539"/>
   <SetReference setId="11"/>
   <Time min="0.99812" max="116.00055" mean="28.54695" standardDeviation="25.23539"/>
   </Sequence>
  <Sequence id="53" numberOfSets="2" occurrence="245" support="0.9919">
   <SetReference setId="7"/>
   <Delimiter delimiter="acrossTimeWindows" gap="unknown"/>
   <Time min="0.99812" max="133.00047" mean="24.33878" standardDeviation="21.3152"/>
   <SetReference setId="3"/>
   <Time min="0.99812" max="133.00047" mean="24.33878" standardDeviation="21.3152"/>
   </Sequence>
  <Sequence id="54" numberOfSets="2" occurrence="245" support="0.9919">
   <SetReference setId="7"/>
   <Delimiter delimiter="acrossTimeWindows" gap="unknown"/>
   <Time min="0.99812" max="106.99925" mean="22.76733" standardDeviation="19.70334"/>
   <SetReference setId="7"/>
   <Time min="0.99812" max="106.99925" mean="22.76733" standardDeviation="19.70334"/>
   </Sequence>
  <Sequence id="55" numberOfSets="2" occurrence="245" support="0.9919">
   <SetReference setId="8"/>
   <Delimiter delimiter="acrossTimeWindows" gap="unknown"/>
   <Time min="0.99812" max="118.99947" mean="21.8612" standardDeviation="19.1924"/>
   <SetReference setId="6"/>
   <Time min="0.99812" max="118.99947" mean="21.8612" standardDeviation="19.1924"/>
   </Sequence>
  <Sequence id="56" numberOfSets="2" occurrence="245" support="0.9919">
   <SetReference setId="8"/>
   <Delimiter delimiter="acrossTimeWindows" gap="unknown"/>
   <Time min="0.99812" max="109.99817" mean="22.34276" standardDeviation="20.56857"/>
   <SetReference setId="7"/>
   <Time min="0.99812" max="109.99817" mean="22.34276" standardDeviation="20.56857"/>
   </Sequence>
  <Sequence id="57" numberOfSets="2" occurrence="245" support="0.9919">
   <SetReference setId="11"/>
   <Delimiter delimiter="acrossTimeWindows" gap="unknown"/>
   <Time min="0.99812" max="99.00063" mean="23.67757" standardDeviation="21.10374"/>
   <SetReference setId="8"/>
   <Time min="0.99812" max="99.00063" mean="23.67757" standardDeviation="21.10374"/>
   </Sequence>
  <Sequence id="58" numberOfSets="2" occurrence="245" support="0.9919">
   <SetReference setId="11"/>
   <Delimiter delimiter="acrossTimeWindows" gap="unknown"/>
   <Time min="0.99812" max="93.00052" mean="14.8286" standardDeviation="13.62994"/>
   <SetReference setId="13"/>
   <Time min="0.99812" max="93.00052" mean="14.8286" standardDeviation="13.62994"/>
   </Sequence>
  <Sequence id="59" numberOfSets="2" occurrence="245" support="0.9919">
   <SetReference setId="13"/>
   <Delimiter delimiter="acrossTimeWindows" gap="unknown"/>
   <Time min="1.0004" max="123.99918" mean="26.6366" standardDeviation="23.21157"/>
   <SetReference setId="12"/>
   <Time min="1.0004" max="123.99918" mean="26.6366" standardDeviation="23.21157"/>
   </Sequence>
  <Sequence id="60" numberOfSets="2" occurrence="244" support="0.98785">
   <SetReference setId="2"/>
   <Delimiter delimiter="acrossTimeWindows" gap="unknown"/>
   <Time min="0.99812" max="83.0011" mean="15.1844" standardDeviation="13.23693"/>
   <SetReference setId="13"/>
   <Time min="0.99812" max="83.0011" mean="15.1844" standardDeviation="13.23693"/>
   </Sequence>
  <Sequence id="61" numberOfSets="2" occurrence="244" support="0.98785">
   <SetReference setId="6"/>
   <Delimiter delimiter="acrossTimeWindows" gap="unknown"/>
   <Time min="0.99812" max="139.00058" mean="27.05327" standardDeviation="25.13911"/>
   <SetReference setId="2"/>
   <Time min="0.99812" max="139.00058" mean="27.05327" standardDeviation="25.13911"/>
   </Sequence>
  <Sequence id="62" numberOfSets="2" occurrence="244" support="0.98785">
   <SetReference setId="8"/>
   <Delimiter delimiter="acrossTimeWindows" gap="unknown"/>
   <Time min="0.99812" max="135.99939" mean="30.00407" standardDeviation="26.68846"/>
   <SetReference setId="11"/>
   <Time min="0.99812" max="135.99939" mean="30.00407" standardDeviation="26.68846"/>
   </Sequence>
  <Sequence id="63" numberOfSets="2" occurrence="244" support="0.98785">
   <SetReference setId="11"/>
   <Delimiter delimiter="acrossTimeWindows" gap="unknown"/>
   <Time min="0.99812" max="67.99969" mean="13.39755" standardDeviation="12.07499"/>
   <SetReference setId="17"/>
   <Time min="0.99812" max="67.99969" mean="13.39755" standardDeviation="12.07499"/>
   </Sequence>
  <Sequence id="64" numberOfSets="2" occurrence="244" support="0.98785">
   <SetReference setId="12"/>
   <Delimiter delimiter="acrossTimeWindows" gap="unknown"/>
   <Time min="0.99812" max="101.00142" mean="23.02045" standardDeviation="19.42173"/>
   <SetReference setId="6"/>
   <Time min="0.99812" max="101.00142" mean="23.02045" standardDeviation="19.42173"/>
   </Sequence>
  <Sequence id="65" numberOfSets="2" occurrence="244" support="0.98785">
   <SetReference setId="12"/>
   <Delimiter delimiter="acrossTimeWindows" gap="unknown"/>
   <Time min="0.99812" max="127.00037" mean="29.25818" standardDeviation="27.01715"/>
   <SetReference setId="11"/>
   <Time min="0.99812" max="127.00037" mean="29.25818" standardDeviation="27.01715"/>
   </Sequence>
  <Sequence id="66" numberOfSets="2" occurrence="244" support="0.98785">
   <SetReference setId="12"/>
   <Delimiter delimiter="acrossTimeWindows" gap="unknown"/>
   <Time min="1.0004" max="110.00044" mean="14.20493" standardDeviation="13.20104"/>
   <SetReference setId="13"/>
   <Time min="1.0004" max="110.00044" mean="14.20493" standardDeviation="13.20104"/>
   </Sequence>
  <Sequence id="67" numberOfSets="2" occurrence="244" support="0.98785">
   <SetReference setId="13"/>
   <Delimiter delimiter="acrossTimeWindows" gap="unknown"/>
   <Time min="0.99812" max="146.99921" mean="27.43433" standardDeviation="25.53327"/>
   <SetReference setId="2"/>
   <Time min="0.99812" max="146.99921" mean="27.43433" standardDeviation="25.53327"/>
   </Sequence>
  <Sequence id="68" numberOfSets="2" occurrence="244" support="0.98785">
   <SetReference setId="15"/>
   <Delimiter delimiter="acrossTimeWindows" gap="unknown"/>
   <Time min="0.99812" max="135.99939" mean="27.668" standardDeviation="24.94126"/>
   <SetReference setId="2"/>
   <Time min="0.99812" max="135.99939" mean="27.668" standardDeviation="24.94126"/>
   </Sequence>
  <Sequence id="69" numberOfSets="2" occurrence="244" support="0.98785">
   <SetReference setId="17"/>
   <Delimiter delimiter="acrossTimeWindows" gap="unknown"/>
   <Time min="0.99812" max="128.00076" mean="28.23354" standardDeviation="25.4336"/>
   <SetReference setId="2"/>
   <Time min="0.99812" max="128.00076" mean="28.23354" standardDeviation="25.4336"/>
   </Sequence>
  <Sequence id="70" numberOfSets="2" occurrence="243" support="0.98381">
   <SetReference setId="2"/>
   <Delimiter delimiter="acrossTimeWindows" gap="unknown"/>
   <Time min="0.99812" max="42.99887" mean="6.77375" standardDeviation="6.41962"/>
   <SetReference setId="15"/>
   <Time min="0.99812" max="42.99887" mean="6.77375" standardDeviation="6.41962"/>
   </Sequence>
  <Sequence id="71" numberOfSets="2" occurrence="243" support="0.98381">
   <SetReference setId="2"/>
   <Delimiter delimiter="acrossTimeWindows" gap="unknown"/>
   <Time min="0.99812" max="49.99937" mean="12.15635" standardDeviation="10.81121"/>
   <SetReference setId="17"/>
   <Time min="0.99812" max="49.99937" mean="12.15635" standardDeviation="10.81121"/>
   </Sequence>
  <Sequence id="72" numberOfSets="2" occurrence="243" support="0.98381">
   <SetReference setId="3"/>
   <Delimiter delimiter="acrossTimeWindows" gap="unknown"/>
   <Time min="0.99812" max="110.00044" mean="21.91359" standardDeviation="19.95456"/>
   <SetReference setId="8"/>
   <Time min="0.99812" max="110.00044" mean="21.91359" standardDeviation="19.95456"/>
   </Sequence>
  <Sequence id="73" numberOfSets="2" occurrence="243" support="0.98381">
   <SetReference setId="3"/>
   <Delimiter delimiter="acrossTimeWindows" gap="unknown"/>
   <Time min="0.99812" max="127.00037" mean="29.48559" standardDeviation="26.67165"/>
   <SetReference setId="11"/>
   <Time min="0.99812" max="127.00037" mean="29.48559" standardDeviation="26.67165"/>
   </Sequence>
  <Sequence id="74" numberOfSets="2" occurrence="243" support="0.98381">
   <SetReference setId="6"/>
   <Delimiter delimiter="acrossTimeWindows" gap="unknown"/>
   <Time min="1.0004" max="111.99896" mean="27.7983" standardDeviation="23.95702"/>
   <SetReference setId="12"/>
   <Time min="1.0004" max="111.99896" mean="27.7983" standardDeviation="23.95702"/>
   </Sequence>
  <Sequence id="75" numberOfSets="2" occurrence="243" support="0.98381">
   <SetReference setId="7"/>
   <Delimiter delimiter="acrossTimeWindows" gap="unknown"/>
   <Time min="0.99812" max="96.99983" mean="21.19342" standardDeviation="18.7041"/>
   <SetReference setId="6"/>
   <Time min="0.99812" max="96.99983" mean="21.19342" standardDeviation="18.7041"/>
   </Sequence>
  <Sequence id="76" numberOfSets="2" occurrence="243" support="0.98381">
   <SetReference setId="12"/>
   <Delimiter delimiter="acrossTimeWindows" gap="unknown"/>
   <Time min="0.99812" max="128.99889" mean="23.99176" standardDeviation="23.08386"/>
   <SetReference setId="3"/>
   <Time min="0.99812" max="128.99889" mean="23.99176" standardDeviation="23.08386"/>
   </Sequence>
  <Sequence id="77" numberOfSets="2" occurrence="242" support="0.97976">
   <SetReference setId="1"/>
   <Delimiter delimiter="acrossTimeWindows" gap="unknown"/>
   <Time min="0.99812" max="36.00064" mean="7.70259" standardDeviation="7.35266"/>
   <SetReference setId="15"/>
   <Time min="0.99812" max="36.00064" mean="7.70259" standardDeviation="7.35266"/>
   </Sequence>
  <Sequence id="78" numberOfSets="2" occurrence="242" support="0.97976">
   <SetReference setId="1"/>
   <Delimiter delimiter="acrossTimeWindows" gap="unknown"/>
   <Time min="1.0004" max="64.00038" mean="12.35543" standardDeviation="11.41697"/>
   <SetReference setId="17"/>
   <Time min="1.0004" max="64.00038" mean="12.35543" standardDeviation="11.41697"/>
   </Sequence>
  <Sequence id="79" numberOfSets="2" occurrence="242" support="0.97976">
   <SetReference setId="2"/>
   <Delimiter delimiter="acrossTimeWindows" gap="unknown"/>
   <Time min="0.99812" max="116.00055" mean="23.39258" standardDeviation="21.40535"/>
   <SetReference setId="6"/>
   <Time min="0.99812" max="116.00055" mean="23.39258" standardDeviation="21.40535"/>
   </Sequence>
  <Sequence id="80" numberOfSets="2" occurrence="242" support="0.97976">
   <SetReference setId="3"/>
   <Delimiter delimiter="acrossTimeWindows" gap="unknown"/>
   <Time min="1.0004" max="123.99918" mean="26.61977" standardDeviation="23.21115"/>
   <SetReference setId="12"/>
   <Time min="1.0004" max="123.99918" mean="26.61977" standardDeviation="23.21115"/>
   </Sequence>
  <Sequence id="81" numberOfSets="2" occurrence="242" support="0.97976">
   <SetReference setId="6"/>
   <Delimiter delimiter="acrossTimeWindows" gap="unknown"/>
   <Time min="0.99812" max="109.00005" mean="22.62803" standardDeviation="20.59295"/>
   <SetReference setId="7"/>
   <Time min="0.99812" max="109.00005" mean="22.62803" standardDeviation="20.59295"/>
   </Sequence>
  <Sequence id="82" numberOfSets="2" occurrence="242" support="0.97976">
   <SetReference setId="7"/>
   <Delimiter delimiter="acrossTimeWindows" gap="unknown"/>
   <Time min="0.99812" max="118.99947" mean="28.93799" standardDeviation="25.66331"/>
   <SetReference setId="11"/>
   <Time min="0.99812" max="118.99947" mean="28.93799" standardDeviation="25.66331"/>
   </Sequence>
  <Sequence id="83" numberOfSets="2" occurrence="242" support="0.97976">
   <SetReference setId="11"/>
   <Delimiter delimiter="acrossTimeWindows" gap="unknown"/>
   <Time min="0.99812" max="111.99896" mean="21.63638" standardDeviation="20.56211"/>
   <SetReference setId="7"/>
   <Time min="0.99812" max="111.99896" mean="21.63638" standardDeviation="20.56211"/>
   </Sequence>
  <Sequence id="84" numberOfSets="2" occurrence="242" support="0.97976">
   <SetReference setId="12"/>
   <Delimiter delimiter="acrossTimeWindows" gap="unknown"/>
   <Time min="0.99812" max="106.99925" mean="22.67353" standardDeviation="20.64397"/>
   <SetReference setId="7"/>
   <Time min="0.99812" max="106.99925" mean="22.67353" standardDeviation="20.64397"/>
   </Sequence>
  <Sequence id="85" numberOfSets="2" occurrence="242" support="0.97976">
   <SetReference setId="15"/>
   <Delimiter delimiter="acrossTimeWindows" gap="unknown"/>
   <Time min="0.99812" max="122.99878" mean="28.53708" standardDeviation="25.62304"/>
   <SetReference setId="1"/>
   <Time min="0.99812" max="122.99878" mean="28.53708" standardDeviation="25.62304"/>
   </Sequence>
  <Sequence id="86" numberOfSets="2" occurrence="241" support="0.97571">
   <SetReference setId="1"/>
   <Delimiter delimiter="acrossTimeWindows" gap="unknown"/>
   <Time min="1.0004" max="89.00121" mean="13.26149" standardDeviation="11.9084"/>
   <SetReference setId="13"/>
   <Time min="1.0004" max="89.00121" mean="13.26149" standardDeviation="11.9084"/>
   </Sequence>
  <Sequence id="87" numberOfSets="2" occurrence="241" support="0.97571">
   <SetReference setId="2"/>
   <Delimiter delimiter="acrossTimeWindows" gap="unknown"/>
   <Time min="0.99812" max="106.00113" mean="23.55604" standardDeviation="20.81406"/>
   <SetReference setId="8"/>
   <Time min="0.99812" max="106.00113" mean="23.55604" standardDeviation="20.81406"/>
   </Sequence>
  <Sequence id="88" numberOfSets="2" occurrence="241" support="0.97571">
   <SetReference setId="3"/>
   <Delimiter delimiter="acrossTimeWindows" gap="unknown"/>
   <Time min="0.99812" max="144.00029" mean="25.41082" standardDeviation="23.93097"/>
   <SetReference setId="2"/>
   <Time min="0.99812" max="144.00029" mean="25.41082" standardDeviation="23.93097"/>
   </Sequence>
  <Sequence id="89" numberOfSets="2" occurrence="241" support="0.97571">
   <SetReference setId="7"/>
   <Delimiter delimiter="acrossTimeWindows" gap="unknown"/>
   <Time min="0.99812" max="128.99889" mean="29.79669" standardDeviation="25.32362"/>
   <SetReference setId="2"/>
   <Time min="0.99812" max="128.99889" mean="29.79669" standardDeviation="25.32362"/>
   </Sequence>
  <Sequence id="90" numberOfSets="2" occurrence="241" support="0.97571">
   <SetReference setId="8"/>
   <Delimiter delimiter="acrossTimeWindows" gap="unknown"/>
   <Time min="0.99812" max="138.00018" mean="26.01243" standardDeviation="23.86026"/>
   <SetReference setId="2"/>
   <Time min="0.99812" max="138.00018" mean="26.01243" standardDeviation="23.86026"/>
   </Sequence>
  <Sequence id="91" numberOfSets="2" occurrence="241" support="0.97571">
   <SetReference setId="8"/>
   <Delimiter delimiter="acrossTimeWindows" gap="unknown"/>
   <Time min="0.99812" max="100.99915" mean="28.1949" standardDeviation="23.48455"/>
   <SetReference setId="12"/>
   <Time min="0.99812" max="100.99915" mean="28.1949" standardDeviation="23.48455"/>
   </Sequence>
  <Sequence id="92" numberOfSets="2" occurrence="241" support="0.97571">
   <SetReference setId="11"/>
   <Delimiter delimiter="acrossTimeWindows" gap="unknown"/>
   <Time min="1.0004" max="136.99979" mean="24.52692" standardDeviation="22.6713"/>
   <SetReference setId="3"/>
   <Time min="1.0004" max="136.99979" mean="24.52692" standardDeviation="22.6713"/>
   </Sequence>
  <Sequence id="93" numberOfSets="2" occurrence="241" support="0.97571">
   <SetReference setId="11"/>
   <Delimiter delimiter="acrossTimeWindows" gap="unknown"/>
   <Time min="0.99812" max="105.99886" mean="22.53529" standardDeviation="18.53759"/>
   <SetReference setId="6"/>
   <Time min="0.99812" max="105.99886" mean="22.53529" standardDeviation="18.53759"/>
   </Sequence>
  <Sequence id="94" numberOfSets="2" occurrence="241" support="0.97571">
   <SetReference setId="12"/>
   <Delimiter delimiter="acrossTimeWindows" gap="unknown"/>
   <Time min="1.0004" max="121.99838" mean="28.35683" standardDeviation="23.59236"/>
   <SetReference setId="12"/>
   <Time min="1.0004" max="121.99838" mean="28.35683" standardDeviation="23.59236"/>
   </Sequence>
  <Sequence id="95" numberOfSets="2" occurrence="241" support="0.97571">
   <SetReference setId="13"/>
   <Delimiter delimiter="acrossTimeWindows" gap="unknown"/>
   <Time min="0.99812" max="116.99867" mean="27.32354" standardDeviation="23.42881"/>
   <SetReference setId="1"/>
   <Time min="0.99812" max="116.99867" mean="27.32354" standardDeviation="23.42881"/>
   </Sequence>
  <Sequence id="96" numberOfSets="2" occurrence="240" support="0.97166">
   <SetReference setId="2"/>
   <Delimiter delimiter="acrossTimeWindows" gap="unknown"/>
   <Time min="0.99812" max="134.00087" mean="25.05832" standardDeviation="23.73439"/>
   <SetReference setId="3"/>
   <Time min="0.99812" max="134.00087" mean="25.05832" standardDeviation="23.73439"/>
   </Sequence>
  <Sequence id="97" numberOfSets="2" occurrence="240" support="0.97166">
   <SetReference setId="2"/>
   <Delimiter delimiter="acrossTimeWindows" gap="unknown"/>
   <Time min="0.99812" max="100.00102" mean="20.62501" standardDeviation="18.64249"/>
   <SetReference setId="7"/>
   <Time min="0.99812" max="100.00102" mean="20.62501" standardDeviation="18.64249"/>
   </Sequence>
  <Sequence id="98" numberOfSets="2" occurrence="240" support="0.97166">
   <SetReference setId="11"/>
   <Delimiter delimiter="acrossTimeWindows" gap="unknown"/>
   <Time min="0.99812" max="111.99896" mean="25.44165" standardDeviation="22.75018"/>
   <SetReference setId="12"/>
   <Time min="0.99812" max="111.99896" mean="25.44165" standardDeviation="22.75018"/>
   </Sequence>
  <Sequence id="99" numberOfSets="2" occurrence="240" support="0.97166">
   <SetReference setId="15"/>
   <Delimiter delimiter="acrossTimeWindows" gap="unknown"/>
   <Time min="0.99812" max="142.99989" mean="38.04574" standardDeviation="29.14325"/>
   <SetReference setId="10"/>
   <Time min="0.99812" max="142.99989" mean="38.04574" standardDeviation="29.14325"/>
   </Sequence>
  <Sequence id="100" numberOfSets="2" occurrence="239" support="0.96761">
   <SetReference setId="1"/>
   <Delimiter delimiter="acrossTimeWindows" gap="unknown"/>
   <Time min="0.99812" max="109.00005" mean="22.09628" standardDeviation="19.74177"/>
   <SetReference setId="6"/>
   <Time min="0.99812" max="109.00005" mean="22.09628" standardDeviation="19.74177"/>
   </Sequence>
  <Sequence id="101" numberOfSets="2" occurrence="239" support="0.96761">
   <SetReference setId="1"/>
   <Delimiter delimiter="acrossTimeWindows" gap="unknown"/>
   <Time min="1.0004" max="98.00023" mean="21.38922" standardDeviation="18.76839"/>
   <SetReference setId="8"/>
   <Time min="1.0004" max="98.00023" mean="21.38922" standardDeviation="18.76839"/>
   </Sequence>
  <Sequence id="102" numberOfSets="2" occurrence="239" support="0.96761">
   <SetReference setId="2"/>
   <Delimiter delimiter="acrossTimeWindows" gap="unknown"/>
   <Time min="1.0004" max="123.99918" mean="27.5648" standardDeviation="25.85215"/>
   <SetReference setId="11"/>
   <Time min="1.0004" max="123.99918" mean="27.5648" standardDeviation="25.85215"/>
   </Sequence>
  <Sequence id="103" numberOfSets="2" occurrence="239" support="0.96761">
   <SetReference setId="7"/>
   <Delimiter delimiter="acrossTimeWindows" gap="unknown"/>
   <Time min="0.99812" max="123.99918" mean="29.18825" standardDeviation="24.21967"/>
   <SetReference setId="1"/>
   <Time min="0.99812" max="123.99918" mean="29.18825" standardDeviation="24.21967"/>
   </Sequence>
  <Sequence id="104" numberOfSets="2" occurrence="239" support="0.96761">
   <SetReference setId="7"/>
   <Delimiter delimiter="acrossTimeWindows" gap="unknown"/>
   <Time min="0.99812" max="121.00026" mean="26.56483" standardDeviation="22.33761"/>
   <SetReference setId="12"/>
   <Time min="0.99812" max="121.00026" mean="26.56483" standardDeviation="22.33761"/>
   </Sequence>
  <Sequence id="105" numberOfSets="2" occurrence="239" support="0.96761">
   <SetReference setId="10"/>
   <Delimiter delimiter="acrossTimeWindows" gap="unknown"/>
   <Time min="0.99812" max="38.99956" mean="8.15485" standardDeviation="7.07848"/>
   <SetReference setId="15"/>
   <Time min="0.99812" max="38.99956" mean="8.15485" standardDeviation="7.07848"/>
   </Sequence>
  <Sequence id="106" numberOfSets="2" occurrence="239" support="0.96761">
   <SetReference setId="12"/>
   <Delimiter delimiter="acrossTimeWindows" gap="unknown"/>
   <Time min="0.99812" max="147.9996" mean="28.1507" standardDeviation="25.70807"/>
   <SetReference setId="2"/>
   <Time min="0.99812" max="147.9996" mean="28.1507" standardDeviation="25.70807"/>
   </Sequence>
  <Sequence id="107" numberOfSets="2" occurrence="239" support="0.96761">
   <SetReference setId="13"/>
   <Delimiter delimiter="acrossTimeWindows" gap="unknown"/>
   <Time min="0.99812" max="138.00018" mean="36.22995" standardDeviation="28.60643"/>
   <SetReference setId="10"/>
   <Time min="0.99812" max="138.00018" mean="36.22995" standardDeviation="28.60643"/>
   </Sequence>
  <Sequence id="108" numberOfSets="2" occurrence="239" support="0.96761">
   <SetReference setId="15"/>
   <Delimiter delimiter="acrossTimeWindows" gap="unknown"/>
   <Time min="1.0004" max="146.99921" mean="38.15472" standardDeviation="30.49437"/>
   <SetReference setId="16"/>
   <Time min="1.0004" max="146.99921" mean="38.15472" standardDeviation="30.49437"/>
   </Sequence>
  <Sequence id="109" numberOfSets="2" occurrence="238" support="0.96356">
   <SetReference setId="2"/>
   <Delimiter delimiter="acrossTimeWindows" gap="unknown"/>
   <Time min="0.99812" max="116.99867" mean="27.13864" standardDeviation="22.97907"/>
   <SetReference setId="12"/>
   <Time min="0.99812" max="116.99867" mean="27.13864" standardDeviation="22.97907"/>
   </Sequence>
  <Sequence id="110" numberOfSets="2" occurrence="238" support="0.96356">
   <SetReference setId="11"/>
   <Delimiter delimiter="acrossTimeWindows" gap="unknown"/>
   <Time min="0.99812" max="149" mean="27.12188" standardDeviation="25.41954"/>
   <SetReference setId="2"/>
   <Time min="0.99812" max="149" mean="27.12188" standardDeviation="25.41954"/>
   </Sequence>
  <Sequence id="111" numberOfSets="2" occurrence="238" support="0.96356">
   <SetReference setId="17"/>
   <Delimiter delimiter="acrossTimeWindows" gap="unknown"/>
   <Time min="1.0004" max="141.00137" mean="36.88225" standardDeviation="28.42215"/>
   <SetReference setId="10"/>
   <Time min="1.0004" max="141.00137" mean="36.88225" standardDeviation="28.42215"/>
   </Sequence>
  <Sequence id="112" numberOfSets="2" occurrence="237" support="0.95951">
   <SetReference setId="1"/>
   <Delimiter delimiter="acrossTimeWindows" gap="unknown"/>
   <Time min="0.99812" max="117.99907" mean="21.90302" standardDeviation="20.01878"/>
   <SetReference setId="7"/>
   <Time min="0.99812" max="117.99907" mean="21.90302" standardDeviation="20.01878"/>
   </Sequence>
  <Sequence id="113" numberOfSets="2" occurrence="237" support="0.95951">
   <SetReference setId="6"/>
   <Delimiter delimiter="acrossTimeWindows" gap="unknown"/>
   <Time min="0.99812" max="119.99986" mean="28.15607" standardDeviation="23.86207"/>
   <SetReference setId="1"/>
   <Time min="0.99812" max="119.99986" mean="28.15607" standardDeviation="23.86207"/>
   </Sequence>
  <Sequence id="114" numberOfSets="2" occurrence="237" support="0.95951">
   <SetReference setId="10"/>
   <Delimiter delimiter="acrossTimeWindows" gap="unknown"/>
   <Time min="0.99812" max="62.99998" mean="12.8397" standardDeviation="11.60499"/>
   <SetReference setId="17"/>
   <Time min="0.99812" max="62.99998" mean="12.8397" standardDeviation="11.60499"/>
   </Sequence>
  <Sequence id="115" numberOfSets="2" occurrence="237" support="0.95951">
   <SetReference setId="13"/>
   <Delimiter delimiter="acrossTimeWindows" gap="unknown"/>
   <Time min="0.99812" max="147.9996" mean="34.88593" standardDeviation="30.32296"/>
   <SetReference setId="16"/>
   <Time min="0.99812" max="147.9996" mean="34.88593" standardDeviation="30.32296"/>
   </Sequence>
  <Sequence id="116" numberOfSets="2" occurrence="237" support="0.95951">
   <SetReference setId="17"/>
   <Delimiter delimiter="acrossTimeWindows" gap="unknown"/>
   <Time min="0.99812" max="123.99918" mean="28.75098" standardDeviation="25.30618"/>
   <SetReference setId="1"/>
   <Time min="0.99812" max="123.99918" mean="28.75098" standardDeviation="25.30618"/>
   </Sequence>
  <Sequence id="117" numberOfSets="2" occurrence="236" support="0.95547">
   <SetReference setId="1"/>
   <Delimiter delimiter="acrossTimeWindows" gap="unknown"/>
   <Time min="1.0004" max="121.00026" mean="22.99159" standardDeviation="21.94828"/>
   <SetReference setId="3"/>
   <Time min="1.0004" max="121.00026" mean="22.99159" standardDeviation="21.94828"/>
   </Sequence>
  <Sequence id="118" numberOfSets="2" occurrence="236" support="0.95547">
   <SetReference setId="2"/>
   <Delimiter delimiter="acrossTimeWindows" gap="unknown"/>
   <Time min="0.99812" max="140.9991" mean="27.20761" standardDeviation="25.82653"/>
   <SetReference setId="2"/>
   <Time min="0.99812" max="140.9991" mean="27.20761" standardDeviation="25.82653"/>
   </Sequence>
  <Sequence id="119" numberOfSets="2" occurrence="236" support="0.95547">
   <SetReference setId="3"/>
   <Delimiter delimiter="acrossTimeWindows" gap="unknown"/>
   <Time min="0.99812" max="116.99867" mean="27.31354" standardDeviation="22.68903"/>
   <SetReference setId="1"/>
   <Time min="0.99812" max="116.99867" mean="27.31354" standardDeviation="22.68903"/>
   </Sequence>
  <Sequence id="120" numberOfSets="2" occurrence="236" support="0.95547">
   <SetReference setId="8"/>
   <Delimiter delimiter="acrossTimeWindows" gap="unknown"/>
   <Time min="1.0004" max="122.99878" mean="27.74572" standardDeviation="23.67479"/>
   <SetReference setId="1"/>
   <Time min="1.0004" max="122.99878" mean="27.74572" standardDeviation="23.67479"/>
   </Sequence>
  <Sequence id="121" numberOfSets="2" occurrence="236" support="0.95547">
   <SetReference setId="10"/>
   <Delimiter delimiter="acrossTimeWindows" gap="unknown"/>
   <Time min="0.99812" max="90.99973" mean="12.17802" standardDeviation="11.27737"/>
   <SetReference setId="13"/>
   <Time min="0.99812" max="90.99973" mean="12.17802" standardDeviation="11.27737"/>
   </Sequence>
  <Sequence id="122" numberOfSets="2" occurrence="236" support="0.95547">
   <SetReference setId="16"/>
   <Delimiter delimiter="acrossTimeWindows" gap="unknown"/>
   <Time min="0.99812" max="36.00064" mean="7.57202" standardDeviation="6.93981"/>
   <SetReference setId="15"/>
   <Time min="0.99812" max="36.00064" mean="7.57202" standardDeviation="6.93981"/>
   </Sequence>
  <Sequence id="123" numberOfSets="2" occurrence="236" support="0.95547">
   <SetReference setId="17"/>
   <Delimiter delimiter="acrossTimeWindows" gap="unknown"/>
   <Time min="0.99812" max="139.9987" mean="36.2753" standardDeviation="30.86708"/>
   <SetReference setId="16"/>
   <Time min="0.99812" max="139.9987" mean="36.2753" standardDeviation="30.86708"/>
   </Sequence>
  <Sequence id="124" numberOfSets="2" occurrence="235" support="0.95142">
   <SetReference setId="1"/>
   <Delimiter delimiter="acrossTimeWindows" gap="unknown"/>
   <Time min="1.0004" max="129.99928" mean="30.17453" standardDeviation="26.7092"/>
   <SetReference setId="11"/>
   <Time min="1.0004" max="129.99928" mean="30.17453" standardDeviation="26.7092"/>
   </Sequence>
  <Sequence id="125" numberOfSets="2" occurrence="235" support="0.95142">
   <SetReference setId="1"/>
   <Delimiter delimiter="acrossTimeWindows" gap="unknown"/>
   <Time min="0.99812" max="106.99925" mean="25.66385" standardDeviation="21.13167"/>
   <SetReference setId="12"/>
   <Time min="0.99812" max="106.99925" mean="25.66385" standardDeviation="21.13167"/>
   </Sequence>
  <Sequence id="126" numberOfSets="2" occurrence="235" support="0.95142">
   <SetReference setId="8"/>
   <Delimiter delimiter="acrossTimeWindows" gap="unknown"/>
   <Time min="0.99812" max="135.99939" mean="34.02967" standardDeviation="28.71712"/>
   <SetReference setId="10"/>
   <Time min="0.99812" max="135.99939" mean="34.02967" standardDeviation="28.71712"/>
   </Sequence>
  <Sequence id="127" numberOfSets="2" occurrence="235" support="0.95142">
   <SetReference setId="11"/>
   <Delimiter delimiter="acrossTimeWindows" gap="unknown"/>
   <Time min="0.99812" max="134.99899" mean="28.47236" standardDeviation="26.82838"/>
   <SetReference setId="11"/>
   <Time min="0.99812" max="134.99899" mean="28.47236" standardDeviation="26.82838"/>
   </Sequence>
  <Sequence id="128" numberOfSets="2" occurrence="235" support="0.95142">
   <SetReference setId="16"/>
   <Delimiter delimiter="acrossTimeWindows" gap="unknown"/>
   <Time min="0.99812" max="54.99908" mean="13.40423" standardDeviation="11.37762"/>
   <SetReference setId="17"/>
   <Time min="0.99812" max="54.99908" mean="13.40423" standardDeviation="11.37762"/>
   </Sequence>
  <Sequence id="129" numberOfSets="2" occurrence="234" support="0.94737">
   <SetReference setId="1"/>
   <Delimiter delimiter="acrossTimeWindows" gap="unknown"/>
   <Time min="0.99812" max="117.99907" mean="26.70515" standardDeviation="24.52019"/>
   <SetReference setId="2"/>
   <Time min="0.99812" max="117.99907" mean="26.70515" standardDeviation="24.52019"/>
   </Sequence>
  <Sequence id="130" numberOfSets="2" occurrence="234" support="0.94737">
   <SetReference setId="11"/>
   <Delimiter delimiter="acrossTimeWindows" gap="unknown"/>
   <Time min="1.0004" max="123.99918" mean="26.99141" standardDeviation="23.00424"/>
   <SetReference setId="1"/>
   <Time min="1.0004" max="123.99918" mean="26.99141" standardDeviation="23.00424"/>
   </Sequence>
  <Sequence id="131" numberOfSets="2" occurrence="233" support="0.94332">
   <SetReference setId="7"/>
   <Delimiter delimiter="acrossTimeWindows" gap="unknown"/>
   <Time min="0.99812" max="145.99881" mean="34.18454" standardDeviation="28.1719"/>
   <SetReference setId="16"/>
   <Time min="0.99812" max="145.99881" mean="34.18454" standardDeviation="28.1719"/>
   </Sequence>
  <Sequence id="132" numberOfSets="2" occurrence="233" support="0.94332">
   <SetReference setId="10"/>
   <Delimiter delimiter="acrossTimeWindows" gap="unknown"/>
   <Time min="1.0004" max="101.99954" mean="21.87989" standardDeviation="19.64966"/>
   <SetReference setId="6"/>
   <Time min="1.0004" max="101.99954" mean="21.87989" standardDeviation="19.64966"/>
   </Sequence>
  <Sequence id="133" numberOfSets="2" occurrence="233" support="0.94332">
   <SetReference setId="12"/>
   <Delimiter delimiter="acrossTimeWindows" gap="unknown"/>
   <Time min="1.0004" max="122.99878" mean="28.33908" standardDeviation="22.41663"/>
   <SetReference setId="1"/>
   <Time min="1.0004" max="122.99878" mean="28.33908" standardDeviation="22.41663"/>
   </Sequence>
  <Sequence id="134" numberOfSets="2" occurrence="233" support="0.94332">
   <SetReference setId="16"/>
   <Delimiter delimiter="acrossTimeWindows" gap="unknown"/>
   <Time min="0.99812" max="79.99991" mean="13.37334" standardDeviation="12.08958"/>
   <SetReference setId="13"/>
   <Time min="0.99812" max="79.99991" mean="13.37334" standardDeviation="12.08958"/>
   </Sequence>
  <Sequence id="135" numberOfSets="2" occurrence="232" support="0.93927">
   <SetReference setId="3"/>
   <Delimiter delimiter="acrossTimeWindows" gap="unknown"/>
   <Time min="1.0004" max="139.9987" mean="33.81466" standardDeviation="28.47361"/>
   <SetReference setId="16"/>
   <Time min="1.0004" max="139.9987" mean="33.81466" standardDeviation="28.47361"/>
   </Sequence>
  <Sequence id="136" numberOfSets="2" occurrence="232" support="0.93927">
   <SetReference setId="6"/>
   <Delimiter delimiter="acrossTimeWindows" gap="unknown"/>
   <Time min="0.99812" max="137.00206" mean="36.43093" standardDeviation="28.90311"/>
   <SetReference setId="10"/>
   <Time min="0.99812" max="137.00206" mean="36.43093" standardDeviation="28.90311"/>
   </Sequence>
  <Sequence id="137" numberOfSets="2" occurrence="232" support="0.93927">
   <SetReference setId="6"/>
   <Delimiter delimiter="acrossTimeWindows" gap="unknown"/>
   <Time min="1.0004" max="144.99841" mean="34.40505" standardDeviation="29.08401"/>
   <SetReference setId="16"/>
   <Time min="1.0004" max="144.99841" mean="34.40505" standardDeviation="29.08401"/>
   </Sequence>
  <Sequence id="138" numberOfSets="2" occurrence="232" support="0.93927">
   <SetReference setId="7"/>
   <Delimiter delimiter="acrossTimeWindows" gap="unknown"/>
   <Time min="1.0004" max="133.9986" mean="32.92668" standardDeviation="26.01745"/>
   <SetReference setId="10"/>
   <Time min="1.0004" max="133.9986" mean="32.92668" standardDeviation="26.01745"/>
   </Sequence>
  <Sequence id="139" numberOfSets="2" occurrence="232" support="0.93927">
   <SetReference setId="12"/>
   <Delimiter delimiter="acrossTimeWindows" gap="unknown"/>
   <Time min="1.0004" max="139.00058" mean="33.50855" standardDeviation="26.08969"/>
   <SetReference setId="10"/>
   <Time min="1.0004" max="139.00058" mean="33.50855" standardDeviation="26.08969"/>
   </Sequence>
  <Sequence id="140" numberOfSets="2" occurrence="232" support="0.93927">
   <SetReference setId="16"/>
   <Delimiter delimiter="acrossTimeWindows" gap="unknown"/>
   <Time min="0.99812" max="74.00208" mean="20.80172" standardDeviation="18.47865"/>
   <SetReference setId="6"/>
   <Time min="0.99812" max="74.00208" mean="20.80172" standardDeviation="18.47865"/>
   </Sequence>
  <Sequence id="141" numberOfSets="2" occurrence="231" support="0.93522">
   <SetReference setId="1"/>
   <Delimiter delimiter="acrossTimeWindows" gap="unknown"/>
   <Time min="0.99812" max="111.00084" mean="29.2425" standardDeviation="23.30519"/>
   <SetReference setId="1"/>
   <Time min="0.99812" max="111.00084" mean="29.2425" standardDeviation="23.30519"/>
   </Sequence>
  <Sequence id="142" numberOfSets="2" occurrence="231" support="0.93522">
   <SetReference setId="2"/>
   <Delimiter delimiter="acrossTimeWindows" gap="unknown"/>
   <Time min="1.0004" max="123.99918" mean="26.78789" standardDeviation="23.26331"/>
   <SetReference setId="1"/>
   <Time min="1.0004" max="123.99918" mean="26.78789" standardDeviation="23.26331"/>
   </Sequence>
  <Sequence id="143" numberOfSets="2" occurrence="231" support="0.93522">
   <SetReference setId="3"/>
   <Delimiter delimiter="acrossTimeWindows" gap="unknown"/>
   <Time min="1.0004" max="112.00124" mean="33.51073" standardDeviation="25.40357"/>
   <SetReference setId="10"/>
   <Time min="1.0004" max="112.00124" mean="33.51073" standardDeviation="25.40357"/>
   </Sequence>
  <Sequence id="144" numberOfSets="2" occurrence="231" support="0.93522">
   <SetReference setId="10"/>
   <Delimiter delimiter="acrossTimeWindows" gap="unknown"/>
   <Time min="1.0004" max="102.99994" mean="23.63209" standardDeviation="20.75772"/>
   <SetReference setId="7"/>
   <Time min="1.0004" max="102.99994" mean="23.63209" standardDeviation="20.75772"/>
   </Sequence>
  <Sequence id="145" numberOfSets="2" occurrence="231" support="0.93522">
   <SetReference setId="16"/>
   <Delimiter delimiter="acrossTimeWindows" gap="unknown"/>
   <Time min="0.99812" max="135.99939" mean="24.44594" standardDeviation="23.26677"/>
   <SetReference setId="3"/>
   <Time min="0.99812" max="135.99939" mean="24.44594" standardDeviation="23.26677"/>
   </Sequence>
  <Sequence id="146" numberOfSets="2" occurrence="230" support="0.93117">
   <SetReference setId="2"/>
   <Delimiter delimiter="acrossTimeWindows" gap="unknown"/>
   <Time min="0.99812" max="146.00108" mean="35.08689" standardDeviation="26.59314"/>
   <SetReference setId="10"/>
   <Time min="0.99812" max="146.00108" mean="35.08689" standardDeviation="26.59314"/>
   </Sequence>
  <Sequence id="147" numberOfSets="2" occurrence="230" support="0.93117">
   <SetReference setId="8"/>
   <Delimiter delimiter="acrossTimeWindows" gap="unknown"/>
   <Time min="0.99812" max="128.99889" mean="34.99996" standardDeviation="28.28778"/>
   <SetReference setId="16"/>
   <Time min="0.99812" max="128.99889" mean="34.99996" standardDeviation="28.28778"/>
   </Sequence>
  <Sequence id="148" numberOfSets="2" occurrence="230" support="0.93117">
   <SetReference setId="10"/>
   <Delimiter delimiter="acrossTimeWindows" gap="unknown"/>
   <Time min="0.99812" max="99.00063" mean="22.26092" standardDeviation="20.20697"/>
   <SetReference setId="8"/>
   <Time min="0.99812" max="99.00063" mean="22.26092" standardDeviation="20.20697"/>
   </Sequence>
  <Sequence id="149" numberOfSets="2" occurrence="229" support="0.92713">
   <SetReference setId="10"/>
   <Delimiter delimiter="acrossTimeWindows" gap="unknown"/>
   <Time min="0.99812" max="117.00095" mean="21.52842" standardDeviation="20.09869"/>
   <SetReference setId="3"/>
   <Time min="0.99812" max="117.00095" mean="21.52842" standardDeviation="20.09869"/>
   </Sequence>
  <Sequence id="150" numberOfSets="2" occurrence="229" support="0.92713">
   <SetReference setId="16"/>
   <Delimiter delimiter="acrossTimeWindows" gap="unknown"/>
   <Time min="1.0004" max="90.99973" mean="24.81234" standardDeviation="18.33629"/>
   <SetReference setId="8"/>
   <Time min="1.0004" max="90.99973" mean="24.81234" standardDeviation="18.33629"/>
   </Sequence>
  <Sequence id="151" numberOfSets="2" occurrence="229" support="0.92713">
   <SetReference setId="16"/>
   <Delimiter delimiter="acrossTimeWindows" gap="unknown"/>
   <Time min="0.99812" max="128.00076" mean="27.72501" standardDeviation="25.15478"/>
   <SetReference setId="11"/>
   <Time min="0.99812" max="128.00076" mean="27.72501" standardDeviation="25.15478"/>
   </Sequence>
  <Sequence id="152" numberOfSets="2" occurrence="228" support="0.92308">
   <SetReference setId="10"/>
   <Delimiter delimiter="acrossTimeWindows" gap="unknown"/>
   <Time min="0.99812" max="136.00166" mean="26.20625" standardDeviation="23.003"/>
   <SetReference setId="2"/>
   <Time min="0.99812" max="136.00166" mean="26.20625" standardDeviation="23.003"/>
   </Sequence>
  <Sequence id="153" numberOfSets="2" occurrence="228" support="0.92308">
   <SetReference setId="10"/>
   <Delimiter delimiter="acrossTimeWindows" gap="unknown"/>
   <Time min="1.0004" max="125.99997" mean="29.37728" standardDeviation="26.82552"/>
   <SetReference setId="11"/>
   <Time min="1.0004" max="125.99997" mean="29.37728" standardDeviation="26.82552"/>
   </Sequence>
  <Sequence id="154" numberOfSets="2" occurrence="228" support="0.92308">
   <SetReference setId="16"/>
   <Delimiter delimiter="acrossTimeWindows" gap="unknown"/>
   <Time min="1.0004" max="111.99896" mean="22.03948" standardDeviation="21.72201"/>
   <SetReference setId="7"/>
   <Time min="1.0004" max="111.99896" mean="22.03948" standardDeviation="21.72201"/>
   </Sequence>
  <Sequence id="155" numberOfSets="2" occurrence="227" support="0.91903">
   <SetReference setId="12"/>
   <Delimiter delimiter="acrossTimeWindows" gap="unknown"/>
   <Time min="1.0004" max="141.9995" mean="32.29513" standardDeviation="28.66175"/>
   <SetReference setId="16"/>
   <Time min="1.0004" max="141.9995" mean="32.29513" standardDeviation="28.66175"/>
   </Sequence>
  <Sequence id="156" numberOfSets="2" occurrence="226" support="0.91498">
   <SetReference setId="11"/>
   <Delimiter delimiter="acrossTimeWindows" gap="unknown"/>
   <Time min="1.0004" max="146.99921" mean="33.35833" standardDeviation="27.91119"/>
   <SetReference setId="16"/>
   <Time min="1.0004" max="146.99921" mean="33.35833" standardDeviation="27.91119"/>
   </Sequence>
  <Sequence id="157" numberOfSets="2" occurrence="226" support="0.91498">
   <SetReference setId="16"/>
   <Delimiter delimiter="acrossTimeWindows" gap="unknown"/>
   <Time min="0.99812" max="115.00015" mean="24.98232" standardDeviation="22.46828"/>
   <SetReference setId="12"/>
   <Time min="0.99812" max="115.00015" mean="24.98232" standardDeviation="22.46828"/>
   </Sequence>
  <Sequence id="158" numberOfSets="2" occurrence="225" support="0.91093">
   <SetReference setId="11"/>
   <Delimiter delimiter="acrossTimeWindows" gap="unknown"/>
   <Time min="0.99812" max="129.00116" mean="32.85768" standardDeviation="26.30953"/>
   <SetReference setId="10"/>
   <Time min="0.99812" max="129.00116" mean="32.85768" standardDeviation="26.30953"/>
   </Sequence>
  <Sequence id="159" numberOfSets="2" occurrence="224" support="0.90688">
   <SetReference setId="1"/>
   <Delimiter delimiter="acrossTimeWindows" gap="unknown"/>
   <Time min="0.99812" max="138.00018" mean="34.3035" standardDeviation="27.22553"/>
   <SetReference setId="10"/>
   <Time min="0.99812" max="138.00018" mean="34.3035" standardDeviation="27.22553"/>
   </Sequence>
  <Sequence id="160" numberOfSets="2" occurrence="224" support="0.90688">
   <SetReference setId="10"/>
   <Delimiter delimiter="acrossTimeWindows" gap="unknown"/>
   <Time min="0.99812" max="111.99896" mean="27.00446" standardDeviation="22.80375"/>
   <SetReference setId="12"/>
   <Time min="0.99812" max="111.99896" mean="27.00446" standardDeviation="22.80375"/>
   </Sequence>
  <Sequence id="161" numberOfSets="2" occurrence="224" support="0.90688">
   <SetReference setId="16"/>
   <Delimiter delimiter="acrossTimeWindows" gap="unknown"/>
   <Time min="0.99812" max="139.00058" mean="28.74559" standardDeviation="24.64904"/>
   <SetReference setId="2"/>
   <Time min="0.99812" max="139.00058" mean="28.74559" standardDeviation="24.64904"/>
   </Sequence>
  <Sequence id="162" numberOfSets="2" occurrence="223" support="0.90283">
   <SetReference setId="2"/>
   <Delimiter delimiter="acrossTimeWindows" gap="unknown"/>
   <Time min="0.99812" max="140.9991" mean="32.40352" standardDeviation="28.6373"/>
   <SetReference setId="16"/>
   <Time min="0.99812" max="140.9991" mean="32.40352" standardDeviation="28.6373"/>
   </Sequence>
  <Sequence id="163" numberOfSets="2" occurrence="223" support="0.90283">
   <SetReference setId="10"/>
   <Delimiter delimiter="acrossTimeWindows" gap="unknown"/>
   <Time min="0.99812" max="117.99907" mean="25.7893" standardDeviation="22.08498"/>
   <SetReference setId="1"/>
   <Time min="0.99812" max="117.99907" mean="25.7893" standardDeviation="22.08498"/>
   </Sequence>
  <Sequence id="164" numberOfSets="2" occurrence="220" support="0.89069">
   <SetReference setId="10"/>
   <Delimiter delimiter="acrossTimeWindows" gap="unknown"/>
   <Time min="1.0004" max="121.00026" mean="30.77273" standardDeviation="26.6222"/>
   <SetReference setId="16"/>
   <Time min="1.0004" max="121.00026" mean="30.77273" standardDeviation="26.6222"/>
   </Sequence>
  <Sequence id="165" numberOfSets="2" occurrence="218" support="0.88259">
   <SetReference setId="1"/>
   <Delimiter delimiter="acrossTimeWindows" gap="unknown"/>
   <Time min="0.99812" max="145.99881" mean="34.92203" standardDeviation="28.73385"/>
   <SetReference setId="16"/>
   <Time min="0.99812" max="145.99881" mean="34.92203" standardDeviation="28.73385"/>
   </Sequence>
  <Sequence id="166" numberOfSets="2" occurrence="214" support="0.8664">
   <SetReference setId="16"/>
   <Delimiter delimiter="acrossTimeWindows" gap="unknown"/>
   <Time min="0.99812" max="113.99976" mean="26.1496" standardDeviation="22.695"/>
   <SetReference setId="1"/>
   <Time min="0.99812" max="113.99976" mean="26.1496" standardDeviation="22.695"/>
   </Sequence>
  <Sequence id="167" numberOfSets="2" occurrence="213" support="0.86235">
   <SetReference setId="4"/>
   <Delimiter delimiter="acrossTimeWindows" gap="unknown"/>
   <Time min="0.99812" max="49.99937" mean="7.08918" standardDeviation="6.62097"/>
   <SetReference setId="15"/>
   <Time min="0.99812" max="49.99937" mean="7.08918" standardDeviation="6.62097"/>
   </Sequence>
  <Sequence id="168" numberOfSets="2" occurrence="211" support="0.85425">
   <SetReference setId="16"/>
   <Delimiter delimiter="acrossTimeWindows" gap="unknown"/>
   <Time min="0.99812" max="122.00066" mean="33.1896" standardDeviation="25.57295"/>
   <SetReference setId="16"/>
   <Time min="0.99812" max="122.00066" mean="33.1896" standardDeviation="25.57295"/>
   </Sequence>
  <Sequence id="169" numberOfSets="2" occurrence="210" support="0.8502">
   <SetReference setId="10"/>
   <Delimiter delimiter="acrossTimeWindows" gap="unknown"/>
   <Time min="0.99812" max="117.00095" mean="32.24283" standardDeviation="26.32826"/>
   <SetReference setId="10"/>
   <Time min="0.99812" max="117.00095" mean="32.24283" standardDeviation="26.32826"/>
   </Sequence>
  <Sequence id="170" numberOfSets="2" occurrence="210" support="0.8502">
   <SetReference setId="15"/>
   <Delimiter delimiter="acrossTimeWindows" gap="unknown"/>
   <Time min="1.0004" max="145.00069" mean="53.66666" standardDeviation="38.32469"/>
   <SetReference setId="4"/>
   <Time min="1.0004" max="145.00069" mean="53.66666" standardDeviation="38.32469"/>
   </Sequence>
  <Sequence id="171" numberOfSets="2" occurrence="210" support="0.8502">
   <SetReference setId="16"/>
   <Delimiter delimiter="acrossTimeWindows" gap="unknown"/>
   <Time min="0.99812" max="131.00195" mean="34.78094" standardDeviation="26.30747"/>
   <SetReference setId="10"/>
   <Time min="0.99812" max="131.00195" mean="34.78094" standardDeviation="26.30747"/>
   </Sequence>
  <Sequence id="172" numberOfSets="2" occurrence="207" support="0.83806">
   <SetReference setId="13"/>
   <Delimiter delimiter="acrossTimeWindows" gap="unknown"/>
   <Time min="0.99812" max="139.00058" mean="50.29947" standardDeviation="35.91001"/>
   <SetReference setId="4"/>
   <Time min="0.99812" max="139.00058" mean="50.29947" standardDeviation="35.91001"/>
   </Sequence>
  <Sequence id="173" numberOfSets="2" occurrence="206" support="0.83401">
   <SetReference setId="4"/>
   <Delimiter delimiter="acrossTimeWindows" gap="unknown"/>
   <Time min="0.99812" max="89.00121" mean="14.10691" standardDeviation="13.6588"/>
   <SetReference setId="13"/>
   <Time min="0.99812" max="89.00121" mean="14.10691" standardDeviation="13.6588"/>
   </Sequence>
  <Sequence id="174" numberOfSets="2" occurrence="206" support="0.83401">
   <SetReference setId="4"/>
   <Delimiter delimiter="acrossTimeWindows" gap="unknown"/>
   <Time min="0.99812" max="48.00085" mean="10.94173" standardDeviation="9.77045"/>
   <SetReference setId="17"/>
   <Time min="0.99812" max="48.00085" mean="10.94173" standardDeviation="9.77045"/>
   </Sequence>
  <Sequence id="175" numberOfSets="2" occurrence="206" support="0.83401">
   <SetReference setId="17"/>
   <Delimiter delimiter="acrossTimeWindows" gap="unknown"/>
   <Time min="0.99812" max="140.9991" mean="50.60188" standardDeviation="36.34863"/>
   <SetReference setId="4"/>
   <Time min="0.99812" max="140.9991" mean="50.60188" standardDeviation="36.34863"/>
   </Sequence>
  <Sequence id="176" numberOfSets="2" occurrence="203" support="0.82186">
   <SetReference setId="6"/>
   <Delimiter delimiter="acrossTimeWindows" gap="unknown"/>
   <Time min="0.99812" max="140.00098" mean="48.53697" standardDeviation="33.88512"/>
   <SetReference setId="4"/>
   <Time min="0.99812" max="140.00098" mean="48.53697" standardDeviation="33.88512"/>
   </Sequence>
  <Sequence id="177" numberOfSets="2" occurrence="201" support="0.81377">
   <SetReference setId="3"/>
   <Delimiter delimiter="acrossTimeWindows" gap="unknown"/>
   <Time min="0.99812" max="135.00127" mean="50.29852" standardDeviation="33.50014"/>
   <SetReference setId="4"/>
   <Time min="0.99812" max="135.00127" mean="50.29852" standardDeviation="33.50014"/>
   </Sequence>
  <Sequence id="178" numberOfSets="2" occurrence="201" support="0.81377">
   <SetReference setId="4"/>
   <Delimiter delimiter="acrossTimeWindows" gap="unknown"/>
   <Time min="0.99812" max="93.99864" mean="21.89544" standardDeviation="19.55496"/>
   <SetReference setId="6"/>
   <Time min="0.99812" max="93.99864" mean="21.89544" standardDeviation="19.55496"/>
   </Sequence>
  <Sequence id="179" numberOfSets="2" occurrence="200" support="0.80972">
   <SetReference setId="12"/>
   <Delimiter delimiter="acrossTimeWindows" gap="unknown"/>
   <Time min="0.99812" max="136.00166" mean="46.53505" standardDeviation="32.916"/>
   <SetReference setId="4"/>
   <Time min="0.99812" max="136.00166" mean="46.53505" standardDeviation="32.916"/>
   </Sequence>
  <Sequence id="180" numberOfSets="2" occurrence="199" support="0.80567">
   <SetReference setId="11"/>
   <Delimiter delimiter="acrossTimeWindows" gap="unknown"/>
   <Time min="1.99852" max="138.00018" mean="47.84421" standardDeviation="32.14985"/>
   <SetReference setId="4"/>
   <Time min="1.99852" max="138.00018" mean="47.84421" standardDeviation="32.14985"/>
   </Sequence>
  <Sequence id="181" numberOfSets="2" occurrence="198" support="0.80162">
   <SetReference setId="4"/>
   <Delimiter delimiter="acrossTimeWindows" gap="unknown"/>
   <Time min="1.0004" max="88.00081" mean="21.35868" standardDeviation="17.32332"/>
   <SetReference setId="8"/>
   <Time min="1.0004" max="88.00081" mean="21.35868" standardDeviation="17.32332"/>
   </Sequence>
  <Sequence id="182" numberOfSets="2" occurrence="198" support="0.80162">
   <SetReference setId="8"/>
   <Delimiter delimiter="acrossTimeWindows" gap="unknown"/>
   <Time min="1.0004" max="134.99899" mean="49.37369" standardDeviation="35.4496"/>
   <SetReference setId="4"/>
   <Time min="1.0004" max="134.99899" mean="49.37369" standardDeviation="35.4496"/>
   </Sequence>
  <Sequence id="183" numberOfSets="2" occurrence="195" support="0.78947">
   <SetReference setId="4"/>
   <Delimiter delimiter="acrossTimeWindows" gap="unknown"/>
   <Time min="0.99812" max="112.99936" mean="21.36413" standardDeviation="20.14604"/>
   <SetReference setId="7"/>
   <Time min="0.99812" max="112.99936" mean="21.36413" standardDeviation="20.14604"/>
   </Sequence>
  <Sequence id="184" numberOfSets="2" occurrence="195" support="0.78947">
   <SetReference setId="4"/>
   <Delimiter delimiter="acrossTimeWindows" gap="unknown"/>
   <Time min="0.99812" max="107.99965" mean="23.97426" standardDeviation="21.95739"/>
   <SetReference setId="12"/>
   <Time min="0.99812" max="107.99965" mean="23.97426" standardDeviation="21.95739"/>
   </Sequence>
  <Sequence id="185" numberOfSets="2" occurrence="194" support="0.78543">
   <SetReference setId="4"/>
   <Delimiter delimiter="acrossTimeWindows" gap="unknown"/>
   <Time min="0.99812" max="110.99857" mean="23.25247" standardDeviation="21.58623"/>
   <SetReference setId="3"/>
   <Time min="0.99812" max="110.99857" mean="23.25247" standardDeviation="21.58623"/>
   </Sequence>
  <Sequence id="186" numberOfSets="2" occurrence="194" support="0.78543">
   <SetReference setId="4"/>
   <Delimiter delimiter="acrossTimeWindows" gap="unknown"/>
   <Time min="1.0004" max="106.00113" mean="25.86083" standardDeviation="21.65626"/>
   <SetReference setId="11"/>
   <Time min="1.0004" max="106.00113" mean="25.86083" standardDeviation="21.65626"/>
   </Sequence>
  <Sequence id="187" numberOfSets="2" occurrence="193" support="0.78138">
   <SetReference setId="2"/>
   <Delimiter delimiter="acrossTimeWindows" gap="unknown"/>
   <Time min="1.0004" max="140.00098" mean="48.26428" standardDeviation="33.25914"/>
   <SetReference setId="4"/>
   <Time min="1.0004" max="140.00098" mean="48.26428" standardDeviation="33.25914"/>
   </Sequence>
  <Sequence id="188" numberOfSets="2" occurrence="193" support="0.78138">
   <SetReference setId="7"/>
   <Delimiter delimiter="acrossTimeWindows" gap="unknown"/>
   <Time min="1.0004" max="144.00029" mean="48.57004" standardDeviation="34.96104"/>
   <SetReference setId="4"/>
   <Time min="1.0004" max="144.00029" mean="48.57004" standardDeviation="34.96104"/>
   </Sequence>
  <Sequence id="189" numberOfSets="2" occurrence="192" support="0.77733">
   <SetReference setId="4"/>
   <Delimiter delimiter="acrossTimeWindows" gap="unknown"/>
   <Time min="0.99812" max="107.99965" mean="23.14059" standardDeviation="21.10631"/>
   <SetReference setId="2"/>
   <Time min="0.99812" max="107.99965" mean="23.14059" standardDeviation="21.10631"/>
   </Sequence>
  <Sequence id="190" numberOfSets="2" occurrence="191" support="0.77328">
   <SetReference setId="1"/>
   <Delimiter delimiter="acrossTimeWindows" gap="unknown"/>
   <Time min="1.0004" max="139.00058" mean="47.43465" standardDeviation="34.53993"/>
   <SetReference setId="4"/>
   <Time min="1.0004" max="139.00058" mean="47.43465" standardDeviation="34.53993"/>
   </Sequence>
  <Sequence id="191" numberOfSets="2" occurrence="188" support="0.76113">
   <SetReference setId="13"/>
   <Delimiter delimiter="acrossTimeWindows" gap="unknown"/>
   <Time min="0.99812" max="142.99989" mean="45.36698" standardDeviation="33.79196"/>
   <SetReference setId="14"/>
   <Time min="0.99812" max="142.99989" mean="45.36698" standardDeviation="33.79196"/>
   </Sequence>
  <Sequence id="192" numberOfSets="2" occurrence="187" support="0.75709">
   <SetReference setId="10"/>
   <Delimiter delimiter="acrossTimeWindows" gap="unknown"/>
   <Time min="0.99812" max="135.00127" mean="45.05886" standardDeviation="32.54048"/>
   <SetReference setId="4"/>
   <Time min="0.99812" max="135.00127" mean="45.05886" standardDeviation="32.54048"/>
   </Sequence>
  <Sequence id="193" numberOfSets="2" occurrence="186" support="0.75304">
   <SetReference setId="14"/>
   <Delimiter delimiter="acrossTimeWindows" gap="unknown"/>
   <Time min="0.99812" max="36.99876" mean="7.73655" standardDeviation="7.2661"/>
   <SetReference setId="15"/>
   <Time min="0.99812" max="36.99876" mean="7.73655" standardDeviation="7.2661"/>
   </Sequence>
  <Sequence id="194" numberOfSets="2" occurrence="186" support="0.75304">
   <SetReference setId="15"/>
   <Delimiter delimiter="acrossTimeWindows" gap="unknown"/>
   <Time min="1.0004" max="142.99989" mean="48.71507" standardDeviation="34.79342"/>
   <SetReference setId="14"/>
   <Time min="1.0004" max="142.99989" mean="48.71507" standardDeviation="34.79342"/>
   </Sequence>
  <Sequence id="195" numberOfSets="2" occurrence="184" support="0.74494">
   <SetReference setId="4"/>
   <Delimiter delimiter="acrossTimeWindows" gap="unknown"/>
   <Time min="0.99812" max="104.99846" mean="26.14672" standardDeviation="20.08822"/>
   <SetReference setId="1"/>
   <Time min="0.99812" max="104.99846" mean="26.14672" standardDeviation="20.08822"/>
   </Sequence>
  <Sequence id="196" numberOfSets="2" occurrence="183" support="0.74089">
   <SetReference setId="14"/>
   <Delimiter delimiter="acrossTimeWindows" gap="unknown"/>
   <Time min="1.0004" max="58.00027" mean="12.34434" standardDeviation="11.13193"/>
   <SetReference setId="17"/>
   <Time min="1.0004" max="58.00027" mean="12.34434" standardDeviation="11.13193"/>
   </Sequence>
  <Sequence id="197" numberOfSets="2" occurrence="182" support="0.73684">
   <SetReference setId="17"/>
   <Delimiter delimiter="acrossTimeWindows" gap="unknown"/>
   <Time min="1.0004" max="142.99989" mean="45.74715" standardDeviation="33.98152"/>
   <SetReference setId="14"/>
   <Time min="1.0004" max="142.99989" mean="45.74715" standardDeviation="33.98152"/>
   </Sequence>
  <Sequence id="198" numberOfSets="2" occurrence="180" support="0.72874">
   <SetReference setId="16"/>
   <Delimiter delimiter="acrossTimeWindows" gap="unknown"/>
   <Time min="1.0004" max="136.99979" mean="48.40559" standardDeviation="32.86484"/>
   <SetReference setId="4"/>
   <Time min="1.0004" max="136.99979" mean="48.40559" standardDeviation="32.86484"/>
   </Sequence>
  <Sequence id="199" numberOfSets="2" occurrence="179" support="0.7247">
   <SetReference setId="6"/>
   <Delimiter delimiter="acrossTimeWindows" gap="unknown"/>
   <Time min="0.99812" max="142.99989" mean="44.59779" standardDeviation="32.65402"/>
   <SetReference setId="14"/>
   <Time min="0.99812" max="142.99989" mean="44.59779" standardDeviation="32.65402"/>
   </Sequence>
  <Sequence id="200" numberOfSets="2" occurrence="178" support="0.72065">
   <SetReference setId="14"/>
   <Delimiter delimiter="acrossTimeWindows" gap="unknown"/>
   <Time min="0.99812" max="72.00128" mean="14.51126" standardDeviation="12.9898"/>
   <SetReference setId="13"/>
   <Time min="0.99812" max="72.00128" mean="14.51126" standardDeviation="12.9898"/>
   </Sequence>
  <Sequence id="201" numberOfSets="2" occurrence="176" support="0.71255">
   <SetReference setId="4"/>
   <Delimiter delimiter="acrossTimeWindows" gap="unknown"/>
   <Time min="0.99812" max="109.00005" mean="28.21014" standardDeviation="23.00709"/>
   <SetReference setId="10"/>
   <Time min="0.99812" max="109.00005" mean="28.21014" standardDeviation="23.00709"/>
   </Sequence>
  <Sequence id="202" numberOfSets="2" occurrence="175" support="0.7085">
   <SetReference setId="8"/>
   <Delimiter delimiter="acrossTimeWindows" gap="unknown"/>
   <Time min="0.99812" max="140.9991" mean="42.87429" standardDeviation="32.25904"/>
   <SetReference setId="14"/>
   <Time min="0.99812" max="140.9991" mean="42.87429" standardDeviation="32.25904"/>
   </Sequence>
  <Sequence id="203" numberOfSets="2" occurrence="175" support="0.7085">
   <SetReference setId="14"/>
   <Delimiter delimiter="acrossTimeWindows" gap="unknown"/>
   <Time min="0.99812" max="75.0002" mean="21.39434" standardDeviation="17.21987"/>
   <SetReference setId="6"/>
   <Time min="0.99812" max="75.0002" mean="21.39434" standardDeviation="17.21987"/>
   </Sequence>
  <Sequence id="204" numberOfSets="2" occurrence="175" support="0.7085">
   <SetReference setId="14"/>
   <Delimiter delimiter="acrossTimeWindows" gap="unknown"/>
   <Time min="0.99812" max="94.00092" mean="24.34285" standardDeviation="21.73786"/>
   <SetReference setId="7"/>
   <Time min="0.99812" max="94.00092" mean="24.34285" standardDeviation="21.73786"/>
   </Sequence>
  <Sequence id="205" numberOfSets="2" occurrence="175" support="0.7085">
   <SetReference setId="14"/>
   <Delimiter delimiter="acrossTimeWindows" gap="unknown"/>
   <Time min="0.99812" max="95.99944" mean="21.63995" standardDeviation="18.57272"/>
   <SetReference setId="8"/>
   <Time min="0.99812" max="95.99944" mean="21.63995" standardDeviation="18.57272"/>
   </Sequence>
  <Sequence id="206" numberOfSets="2" occurrence="175" support="0.7085">
   <SetReference setId="14"/>
   <Delimiter delimiter="acrossTimeWindows" gap="unknown"/>
   <Time min="0.99812" max="97.00211" mean="25.69142" standardDeviation="23.00239"/>
   <SetReference setId="11"/>
   <Time min="0.99812" max="97.00211" mean="25.69142" standardDeviation="23.00239"/>
   </Sequence>
  <Sequence id="207" numberOfSets="2" occurrence="175" support="0.7085">
   <SetReference setId="14"/>
   <Delimiter delimiter="acrossTimeWindows" gap="unknown"/>
   <Time min="0.99812" max="114.00203" mean="23.76575" standardDeviation="21.89632"/>
   <SetReference setId="12"/>
   <Time min="0.99812" max="114.00203" mean="23.76575" standardDeviation="21.89632"/>
   </Sequence>
  <Sequence id="208" numberOfSets="2" occurrence="174" support="0.70445">
   <SetReference setId="3"/>
   <Delimiter delimiter="acrossTimeWindows" gap="unknown"/>
   <Time min="1.0004" max="142.99989" mean="43.1437" standardDeviation="32.30584"/>
   <SetReference setId="14"/>
   <Time min="1.0004" max="142.99989" mean="43.1437" standardDeviation="32.30584"/>
   </Sequence>
  <Sequence id="209" numberOfSets="2" occurrence="174" support="0.70445">
   <SetReference setId="14"/>
   <Delimiter delimiter="acrossTimeWindows" gap="unknown"/>
   <Time min="0.99812" max="96.99983" mean="23.74711" standardDeviation="21.13038"/>
   <SetReference setId="3"/>
   <Time min="0.99812" max="96.99983" mean="23.74711" standardDeviation="21.13038"/>
   </Sequence>
  <Sequence id="210" numberOfSets="2" occurrence="173" support="0.7004">
   <SetReference setId="7"/>
   <Delimiter delimiter="acrossTimeWindows" gap="unknown"/>
   <Time min="1.0004" max="147.9996" mean="45.82666" standardDeviation="32.72772"/>
   <SetReference setId="14"/>
   <Time min="1.0004" max="147.9996" mean="45.82666" standardDeviation="32.72772"/>
   </Sequence>
  <Sequence id="211" numberOfSets="2" occurrence="172" support="0.69636">
   <SetReference setId="4"/>
   <Delimiter delimiter="acrossTimeWindows" gap="unknown"/>
   <Time min="1.0004" max="116.99867" mean="29.08139" standardDeviation="22.4723"/>
   <SetReference setId="16"/>
   <Time min="1.0004" max="116.99867" mean="29.08139" standardDeviation="22.4723"/>
   </Sequence>
  <Sequence id="212" numberOfSets="2" occurrence="171" support="0.69231">
   <SetReference setId="14"/>
   <Delimiter delimiter="acrossTimeWindows" gap="unknown"/>
   <Time min="0.99812" max="105.00073" mean="24.99412" standardDeviation="22.06326"/>
   <SetReference setId="2"/>
   <Time min="0.99812" max="105.00073" mean="24.99412" standardDeviation="22.06326"/>
   </Sequence>
  <Sequence id="213" numberOfSets="2" occurrence="169" support="0.68421">
   <SetReference setId="12"/>
   <Delimiter delimiter="acrossTimeWindows" gap="unknown"/>
   <Time min="0.99812" max="144.00029" mean="43.15389" standardDeviation="33.90385"/>
   <SetReference setId="14"/>
   <Time min="0.99812" max="144.00029" mean="43.15389" standardDeviation="33.90385"/>
   </Sequence>
  <Sequence id="214" numberOfSets="2" occurrence="166" support="0.67206">
   <SetReference setId="11"/>
   <Delimiter delimiter="acrossTimeWindows" gap="unknown"/>
   <Time min="0.99812" max="141.9995" mean="40.7651" standardDeviation="33.92288"/>
   <SetReference setId="14"/>
   <Time min="0.99812" max="141.9995" mean="40.7651" standardDeviation="33.92288"/>
   </Sequence>
  <Sequence id="215" numberOfSets="2" occurrence="164" support="0.66397">
   <SetReference setId="1"/>
   <Delimiter delimiter="acrossTimeWindows" gap="unknown"/>
   <Time min="1.0004" max="140.9991" mean="43.14032" standardDeviation="33.26391"/>
   <SetReference setId="14"/>
   <Time min="1.0004" max="140.9991" mean="43.14032" standardDeviation="33.26391"/>
   </Sequence>
  <Sequence id="216" numberOfSets="2" occurrence="164" support="0.66397">
   <SetReference setId="14"/>
   <Delimiter delimiter="acrossTimeWindows" gap="unknown"/>
   <Time min="0.99812" max="105.99886" mean="22.13418" standardDeviation="20.7327"/>
   <SetReference setId="1"/>
   <Time min="0.99812" max="105.99886" mean="22.13418" standardDeviation="20.7327"/>
   </Sequence>
  <Sequence id="217" numberOfSets="2" occurrence="161" support="0.65182">
   <SetReference setId="2"/>
   <Delimiter delimiter="acrossTimeWindows" gap="unknown"/>
   <Time min="1.0004" max="142.00177" mean="44.82609" standardDeviation="32.1682"/>
   <SetReference setId="14"/>
   <Time min="1.0004" max="142.00177" mean="44.82609" standardDeviation="32.1682"/>
   </Sequence>
  <Sequence id="218" numberOfSets="2" occurrence="156" support="0.63158">
   <SetReference setId="14"/>
   <Delimiter delimiter="acrossTimeWindows" gap="unknown"/>
   <Time min="1.0004" max="117.99907" mean="34.46789" standardDeviation="26.68561"/>
   <SetReference setId="16"/>
   <Time min="1.0004" max="117.99907" mean="34.46789" standardDeviation="26.68561"/>
   </Sequence>
  <Sequence id="219" numberOfSets="2" occurrence="154" support="0.62348">
   <SetReference setId="14"/>
   <Delimiter delimiter="acrossTimeWindows" gap="unknown"/>
   <Time min="0.99812" max="135.99939" mean="31.18828" standardDeviation="24.72646"/>
   <SetReference setId="10"/>
   <Time min="0.99812" max="135.99939" mean="31.18828" standardDeviation="24.72646"/>
   </Sequence>
  <Sequence id="220" numberOfSets="2" occurrence="152" support="0.61538">
   <SetReference setId="10"/>
   <Delimiter delimiter="acrossTimeWindows" gap="unknown"/>
   <Time min="1.99852" max="139.00058" mean="42.03953" standardDeviation="29.66609"/>
   <SetReference setId="14"/>
   <Time min="1.99852" max="139.00058" mean="42.03953" standardDeviation="29.66609"/>
   </Sequence>
  <Sequence id="221" numberOfSets="2" occurrence="143" support="0.57895">
   <SetReference setId="16"/>
   <Delimiter delimiter="acrossTimeWindows" gap="unknown"/>
   <Time min="0.99812" max="145.00069" mean="42.6574" standardDeviation="32.65763"/>
   <SetReference setId="14"/>
   <Time min="0.99812" max="145.00069" mean="42.6574" standardDeviation="32.65763"/>
   </Sequence>
  <Sequence id="222" numberOfSets="2" occurrence="137" support="0.55466">
   <SetReference setId="14"/>
   <Delimiter delimiter="acrossTimeWindows" gap="unknown"/>
   <Time min="2.00079" max="124.99957" mean="42.343" standardDeviation="30.21069"/>
   <SetReference setId="4"/>
   <Time min="2.00079" max="124.99957" mean="42.343" standardDeviation="30.21069"/>
   </Sequence>
  <Sequence id="223" numberOfSets="2" occurrence="134" support="0.54251">
   <SetReference setId="4"/>
   <Delimiter delimiter="acrossTimeWindows" gap="unknown"/>
   <Time min="1.99852" max="133.9986" mean="42.38055" standardDeviation="32.1566"/>
   <SetReference setId="4"/>
   <Time min="1.99852" max="133.9986" mean="42.38055" standardDeviation="32.1566"/>
   </Sequence>
  <Sequence id="224" numberOfSets="2" occurrence="118" support="0.47773">
   <SetReference setId="14"/>
   <Delimiter delimiter="acrossTimeWindows" gap="unknown"/>
   <Time min="1.0004" max="115.00015" mean="41.2796" standardDeviation="27.86363"/>
   <SetReference setId="14"/>
   <Time min="1.0004" max="115.00015" mean="41.2796" standardDeviation="27.86363"/>
   </Sequence>
  <Sequence id="225" numberOfSets="2" occurrence="117" support="0.47368">
   <SetReference setId="4"/>
   <Delimiter delimiter="acrossTimeWindows" gap="unknown"/>
   <Time min="0.99812" max="127.00037" mean="38.11107" standardDeviation="30.14065"/>
   <SetReference setId="14"/>
   <Time min="0.99812" max="127.00037" mean="38.11107" standardDeviation="30.14065"/>
   </Sequence>
  <Sequence id="226" numberOfSets="2" occurrence="113" support="0.45749">
   <SetReference setId="9"/>
   <Delimiter delimiter="acrossTimeWindows" gap="unknown"/>
   <Time min="0.99812" max="39.00183" mean="8.07074" standardDeviation="7.32048"/>
   <SetReference setId="15"/>
   <Time min="0.99812" max="39.00183" mean="8.07074" standardDeviation="7.32048"/>
   </Sequence>
  <Sequence id="227" numberOfSets="2" occurrence="109" support="0.4413">
   <SetReference setId="13"/>
   <Delimiter delimiter="acrossTimeWindows" gap="unknown"/>
   <Time min="3.00119" max="144.00029" mean="53.899" standardDeviation="36.16123"/>
   <SetReference setId="9"/>
   <Time min="3.00119" max="144.00029" mean="53.899" standardDeviation="36.16123"/>
   </Sequence>
  <Sequence id="228" numberOfSets="2" occurrence="109" support="0.4413">
   <SetReference setId="15"/>
   <Delimiter delimiter="acrossTimeWindows" gap="unknown"/>
   <Time min="4.99971" max="146.99921" mean="59.80733" standardDeviation="38.80218"/>
   <SetReference setId="9"/>
   <Time min="4.99971" max="146.99921" mean="59.80733" standardDeviation="38.80218"/>
   </Sequence>
  <Sequence id="229" numberOfSets="2" occurrence="108" support="0.43725">
   <SetReference setId="9"/>
   <Delimiter delimiter="acrossTimeWindows" gap="unknown"/>
   <Time min="0.99812" max="73.9998" mean="14.25001" standardDeviation="11.54065"/>
   <SetReference setId="13"/>
   <Time min="0.99812" max="73.9998" mean="14.25001" standardDeviation="11.54065"/>
   </Sequence>
  <Sequence id="230" numberOfSets="2" occurrence="108" support="0.43725">
   <SetReference setId="9"/>
   <Delimiter delimiter="acrossTimeWindows" gap="unknown"/>
   <Time min="0.99812" max="67.99969" mean="12.48149" standardDeviation="13.27863"/>
   <SetReference setId="17"/>
   <Time min="0.99812" max="67.99969" mean="12.48149" standardDeviation="13.27863"/>
   </Sequence>
  <Sequence id="231" numberOfSets="2" occurrence="106" support="0.42915">
   <SetReference setId="9"/>
   <Delimiter delimiter="acrossTimeWindows" gap="unknown"/>
   <Time min="0.99812" max="106.00113" mean="27.24539" standardDeviation="23.67628"/>
   <SetReference setId="11"/>
   <Time min="0.99812" max="106.00113" mean="27.24539" standardDeviation="23.67628"/>
   </Sequence>
  <Sequence id="232" numberOfSets="2" occurrence="106" support="0.42915">
   <SetReference setId="17"/>
   <Delimiter delimiter="acrossTimeWindows" gap="unknown"/>
   <Time min="0.99812" max="146.99921" mean="55.6037" standardDeviation="37.5558"/>
   <SetReference setId="9"/>
   <Time min="0.99812" max="146.99921" mean="55.6037" standardDeviation="37.5558"/>
   </Sequence>
  <Sequence id="233" numberOfSets="2" occurrence="105" support="0.4251">
   <SetReference setId="9"/>
   <Delimiter delimiter="acrossTimeWindows" gap="unknown"/>
   <Time min="1.0004" max="73.9998" mean="19.89527" standardDeviation="17.99951"/>
   <SetReference setId="8"/>
   <Time min="1.0004" max="73.9998" mean="19.89527" standardDeviation="17.99951"/>
   </Sequence>
  <Sequence id="234" numberOfSets="2" occurrence="104" support="0.42105">
   <SetReference setId="9"/>
   <Delimiter delimiter="acrossTimeWindows" gap="unknown"/>
   <Time min="1.0004" max="72.9994" mean="22.32695" standardDeviation="17.33357"/>
   <SetReference setId="6"/>
   <Time min="1.0004" max="72.9994" mean="22.32695" standardDeviation="17.33357"/>
   </Sequence>
  <Sequence id="235" numberOfSets="2" occurrence="102" support="0.41296">
   <SetReference setId="9"/>
   <Delimiter delimiter="acrossTimeWindows" gap="unknown"/>
   <Time min="0.99812" max="116.99867" mean="27.28428" standardDeviation="23.76339"/>
   <SetReference setId="3"/>
   <Time min="0.99812" max="116.99867" mean="27.28428" standardDeviation="23.76339"/>
   </Sequence>
  <Sequence id="236" numberOfSets="2" occurrence="102" support="0.41296">
   <SetReference setId="9"/>
   <Delimiter delimiter="acrossTimeWindows" gap="unknown"/>
   <Time min="1.0004" max="92.99825" mean="20.68643" standardDeviation="17.35885"/>
   <SetReference setId="7"/>
   <Time min="1.0004" max="92.99825" mean="20.68643" standardDeviation="17.35885"/>
   </Sequence>
  <Sequence id="237" numberOfSets="2" occurrence="101" support="0.40891">
   <SetReference setId="9"/>
   <Delimiter delimiter="acrossTimeWindows" gap="unknown"/>
   <Time min="1.0004" max="130.99968" mean="28.09899" standardDeviation="25.26917"/>
   <SetReference setId="2"/>
   <Time min="1.0004" max="130.99968" mean="28.09899" standardDeviation="25.26917"/>
   </Sequence>
  <Sequence id="238" numberOfSets="2" occurrence="100" support="0.40486">
   <SetReference setId="6"/>
   <Delimiter delimiter="acrossTimeWindows" gap="unknown"/>
   <Time min="0.99812" max="142.99989" mean="53.92996" standardDeviation="38.40207"/>
   <SetReference setId="9"/>
   <Time min="0.99812" max="142.99989" mean="53.92996" standardDeviation="38.40207"/>
   </Sequence>
  <Sequence id="239" numberOfSets="2" occurrence="100" support="0.40486">
   <SetReference setId="9"/>
   <Delimiter delimiter="acrossTimeWindows" gap="unknown"/>
   <Time min="1.0004" max="100.00102" mean="20.73011" standardDeviation="20.55147"/>
   <SetReference setId="12"/>
   <Time min="1.0004" max="100.00102" mean="20.73011" standardDeviation="20.55147"/>
   </Sequence>
  <Sequence id="240" numberOfSets="2" occurrence="96" support="0.38866">
   <SetReference setId="3"/>
   <Delimiter delimiter="acrossTimeWindows" gap="unknown"/>
   <Time min="0.99812" max="146.00108" mean="52.9374" standardDeviation="40.98945"/>
   <SetReference setId="9"/>
   <Time min="0.99812" max="146.00108" mean="52.9374" standardDeviation="40.98945"/>
   </Sequence>
  <Sequence id="241" numberOfSets="2" occurrence="95" support="0.38462">
   <SetReference setId="2"/>
   <Delimiter delimiter="acrossTimeWindows" gap="unknown"/>
   <Time min="0.99812" max="138.00018" mean="49.81059" standardDeviation="35.12349"/>
   <SetReference setId="9"/>
   <Time min="0.99812" max="138.00018" mean="49.81059" standardDeviation="35.12349"/>
   </Sequence>
  <Sequence id="242" numberOfSets="2" occurrence="95" support="0.38462">
   <SetReference setId="9"/>
   <Delimiter delimiter="acrossTimeWindows" gap="unknown"/>
   <Time min="0.99812" max="88.00081" mean="22.74732" standardDeviation="19.96468"/>
   <SetReference setId="1"/>
   <Time min="0.99812" max="88.00081" mean="22.74732" standardDeviation="19.96468"/>
   </Sequence>
  <Sequence id="243" numberOfSets="2" occurrence="95" support="0.38462">
   <SetReference setId="12"/>
   <Delimiter delimiter="acrossTimeWindows" gap="unknown"/>
   <Time min="1.0004" max="136.99979" mean="52.34732" standardDeviation="32.97931"/>
   <SetReference setId="9"/>
   <Time min="1.0004" max="136.99979" mean="52.34732" standardDeviation="32.97931"/>
   </Sequence>
  <Sequence id="244" numberOfSets="2" occurrence="94" support="0.38057">
   <SetReference setId="8"/>
   <Delimiter delimiter="acrossTimeWindows" gap="unknown"/>
   <Time min="0.99812" max="143.00217" mean="55.14897" standardDeviation="37.03514"/>
   <SetReference setId="9"/>
   <Time min="0.99812" max="143.00217" mean="55.14897" standardDeviation="37.03514"/>
   </Sequence>
  <Sequence id="245" numberOfSets="2" occurrence="93" support="0.37652">
   <SetReference setId="7"/>
   <Delimiter delimiter="acrossTimeWindows" gap="unknown"/>
   <Time min="1.0004" max="136.99979" mean="53.93556" standardDeviation="35.31393"/>
   <SetReference setId="9"/>
   <Time min="1.0004" max="136.99979" mean="53.93556" standardDeviation="35.31393"/>
   </Sequence>
  <Sequence id="246" numberOfSets="2" occurrence="93" support="0.37652">
   <SetReference setId="9"/>
   <Delimiter delimiter="acrossTimeWindows" gap="unknown"/>
   <Time min="1.0004" max="113.99976" mean="30.89238" standardDeviation="25.97487"/>
   <SetReference setId="16"/>
   <Time min="1.0004" max="113.99976" mean="30.89238" standardDeviation="25.97487"/>
   </Sequence>
  <Sequence id="247" numberOfSets="2" occurrence="92" support="0.37247">
   <SetReference setId="11"/>
   <Delimiter delimiter="acrossTimeWindows" gap="unknown"/>
   <Time min="0.99812" max="142.99989" mean="53.92376" standardDeviation="36.38283"/>
   <SetReference setId="9"/>
   <Time min="0.99812" max="142.99989" mean="53.92376" standardDeviation="36.38283"/>
   </Sequence>
  <Sequence id="248" numberOfSets="2" occurrence="89" support="0.36032">
   <SetReference setId="9"/>
   <Delimiter delimiter="acrossTimeWindows" gap="unknown"/>
   <Time min="1.0004" max="128.99889" mean="32.40435" standardDeviation="26.10928"/>
   <SetReference setId="10"/>
   <Time min="1.0004" max="128.99889" mean="32.40435" standardDeviation="26.10928"/>
   </Sequence>
  <Sequence id="249" numberOfSets="2" occurrence="86" support="0.34818">
   <SetReference setId="1"/>
   <Delimiter delimiter="acrossTimeWindows" gap="unknown"/>
   <Time min="1.0004" max="146.00108" mean="55.7792" standardDeviation="38.5477"/>
   <SetReference setId="9"/>
   <Time min="1.0004" max="146.00108" mean="55.7792" standardDeviation="38.5477"/>
   </Sequence>
  <Sequence id="250" numberOfSets="2" occurrence="85" support="0.34413">
   <SetReference setId="16"/>
   <Delimiter delimiter="acrossTimeWindows" gap="unknown"/>
   <Time min="1.0004" max="144.00029" mean="51.75301" standardDeviation="35.54325"/>
   <SetReference setId="9"/>
   <Time min="1.0004" max="144.00029" mean="51.75301" standardDeviation="35.54325"/>
   </Sequence>
  <Sequence id="251" numberOfSets="2" occurrence="81" support="0.32794">
   <SetReference setId="10"/>
   <Delimiter delimiter="acrossTimeWindows" gap="unknown"/>
   <Time min="2.99892" max="142.00177" mean="49.16063" standardDeviation="35.49076"/>
   <SetReference setId="9"/>
   <Time min="2.99892" max="142.00177" mean="49.16063" standardDeviation="35.49076"/>
   </Sequence>
  <Sequence id="252" numberOfSets="2" occurrence="79" support="0.31984">
   <SetReference setId="9"/>
   <Delimiter delimiter="acrossTimeWindows" gap="unknown"/>
   <Time min="1.99852" max="128.99889" mean="35.75961" standardDeviation="28.36561"/>
   <SetReference setId="4"/>
   <Time min="1.99852" max="128.99889" mean="35.75961" standardDeviation="28.36561"/>
   </Sequence>
  <Sequence id="253" numberOfSets="2" occurrence="64" support="0.25911">
   <SetReference setId="15"/>
   <Delimiter delimiter="acrossTimeWindows" gap="unknown"/>
   <Time min="6.00011" max="144.99841" mean="57.71877" standardDeviation="30.08407"/>
   <SetReference setId="5"/>
   <Time min="6.00011" max="144.99841" mean="57.71877" standardDeviation="30.08407"/>
   </Sequence>
  <Sequence id="254" numberOfSets="2" occurrence="64" support="0.25911">
   <SetReference setId="17"/>
   <Delimiter delimiter="acrossTimeWindows" gap="unknown"/>
